{"model.pe_layer.positional_encoding_gaussian_matrix": [[-0.48265618085861206, -0.6631841659545898, 0.06168568879365921, -1.3320974111557007, -1.0395386219024658, 1.688713550567627, 0.3371371626853943, 0.50505530834198, -0.8819852471351624, 0.2550051212310791, -0.8722822070121765, 0.26034578680992126, 0.7049478888511658, -1.1512590646743774, 1.0087398290634155, -2.611052989959717, 0.27649712562561035, 0.09595707058906555, -1.3197396993637085, 2.19228458404541, 0.6381698250770569, -0.9621985554695129, 0.41175416111946106, -2.8712069988250732, -1.2128278017044067, 0.022060606628656387, -0.40915337204933167, 1.5861760377883911, 0.9555356502532959, -0.962376058101654, 1.3591598272323608, 0.0634671002626419, -2.246241569519043, -0.422020822763443, 0.006251870654523373, -0.4393279254436493, 1.2017028331756592, -1.525891661643982, 1.040157675743103, 0.5325528383255005, -0.5670844316482544, 1.364589810371399, -0.25420278310775757, -0.8700051307678223, -0.7229898571968079, -1.4742122888565063, 0.10169776529073715, -0.24706318974494934, -0.31344226002693176, -0.3914218544960022, 0.08494147658348083, 1.377404808998108, 1.1537935733795166, -1.5485401153564453, 2.2836921215057373, 0.7602640986442566, 0.7324116230010986, -0.6356844902038574, -0.14466938376426697, -0.3128892481327057, 1.8386735916137695, 0.4050843119621277, -0.14017273485660553, -1.1278257369995117, -0.2578674554824829, -1.0400484800338745, -0.784611701965332, -0.1789620965719223, -0.9202696681022644, -1.1087477207183838, 0.3076729476451874, -0.04418341442942619, 0.49118778109550476, -0.7452138662338257, 0.6194453835487366, -1.9995695352554321, -0.9284396171569824, -0.6577734351158142, -0.679375946521759, -0.31263497471809387, -0.8547729253768921, -3.2449305057525635, 1.7295666933059692, -0.7116711139678955, 1.2573459148406982, -0.5674656629562378, -0.17325009405612946, -0.21252207458019257, 1.6206310987472534, -1.5640814304351807, 0.6490780711174011, -1.4182168245315552, -1.7803455591201782, 1.2379213571548462, 0.7057901620864868, -0.6574938297271729, 0.13271549344062805, 0.017687248066067696, -1.4182225465774536, 0.13771875202655792, -1.2369823455810547, -1.0779787302017212, 1.8854039907455444, -1.2859004735946655, -0.125836580991745, -1.996760606765747, -0.9371750950813293, 0.5934966206550598, -0.53938227891922, -0.2566847801208496, 0.4820144772529602, 0.011663527227938175, -0.6504075527191162, -1.4803920984268188, 0.8609058260917664, -1.219429850578308, 1.4697026014328003, -1.8234872817993164, -0.24906310439109802, -2.091399669647217, 1.1694574356079102, -0.6141386032104492, 0.559212863445282, -0.6661384105682373, -1.0952869653701782, 0.1270737648010254, -0.2932043671607971, -0.11101920902729034], [1.1196969747543335, -0.09822960197925568, -0.6127382516860962, -1.2792255878448486, -0.7461680769920349, 0.15696389973163605, 0.13845676183700562, 0.745606005191803, 1.626640796661377, -0.8027069568634033, -0.46189630031585693, 0.11070653051137924, -0.3741935193538666, -0.16785863041877747, -1.1951520442962646, -0.09651459753513336, -0.5592631697654724, 1.2225406169891357, 1.7124590873718262, 0.3147708475589752, -1.1157455444335938, 0.7098339796066284, 2.5573718547821045, -0.7729921340942383, -0.5130066871643066, 0.09619751572608948, -0.19107069075107574, -1.6097403764724731, 1.8421441316604614, -0.9830476641654968, -0.7179132699966431, 0.17105433344841003, -0.06276534497737885, 2.5598654747009277, -1.3136976957321167, -1.116750717163086, 0.3993363082408905, 0.9055823087692261, 0.22913432121276855, -1.156219244003296, 1.3199255466461182, -1.069413185119629, 2.0860087871551514, 0.490560382604599, -1.1010441780090332, 0.7223871350288391, -0.810238778591156, 2.0044684410095215, 0.8624627590179443, -1.458444356918335, 0.4332515001296997, 0.6720653772354126, 0.821311891078949, -0.19344498217105865, -0.8224958777427673, 0.12996123731136322, 0.962271511554718, 1.4505033493041992, 1.7498812675476074, -1.2277809381484985, 1.1434108018875122, 0.4068564474582672, -0.19811509549617767, -1.4759469032287598, 0.029822897166013718, -0.3757357597351074, 0.3522934913635254, 0.7562942504882812, 0.6488932967185974, 0.5723966360092163, 0.5867834687232971, 0.4053906500339508, -1.5366816520690918, 0.5220715999603271, 0.45324233174324036, -0.28573524951934814, -0.07163745909929276, -0.13826516270637512, 1.140437364578247, -0.1868060827255249, 1.0654242038726807, -0.030777163803577423, 0.43044453859329224, -0.07322755455970764, -0.9684383869171143, 0.6539861559867859, -1.9083998203277588, -1.058312177658081, -0.4293493926525116, 2.2695863246917725, -1.3838787078857422, -0.8279815912246704, 0.08201579749584198, -1.6481438875198364, 1.0527193546295166, 0.3100128173828125, -0.592635452747345, -0.417574942111969, 1.5602554082870483, -1.6769781112670898, -0.24029403924942017, 0.31858378648757935, -1.965739130973816, 0.11877176910638809, 0.5829715132713318, -0.1104552373290062, 0.7980259656906128, -0.23887476325035095, 1.2897013425827026, 0.013225316070020199, -0.5820161700248718, 1.5860707759857178, -0.09925252199172974, 0.16926932334899902, -1.043710708618164, -2.2293202877044678, 0.6372336149215698, 0.9602656960487366, -0.7115780115127563, -1.1734040975570679, -0.36560797691345215, -1.1903648376464844, -0.029624734073877335, 0.6518161296844482, 0.027667896822094917, -1.6981935501098633, 0.49134665727615356, 0.4676905870437622]], "model.point_embeddings.0.weight": [[0.3144674003124237, -0.04234539344906807, -0.31466981768608093, 0.0016868290258571506, 0.031153274700045586, 0.09338778257369995, 0.07336599379777908, -0.5897576212882996, 0.026044342666864395, 0.13580118119716644, -0.2547959089279175, -0.0455714613199234, -0.17976556718349457, 0.08503067493438721, -0.06418965756893158, -0.004523185547441244, 0.2079256922006607, 0.3028455078601837, 0.2181842029094696, -0.0036114968825131655, 0.07905105501413345, -0.49859383702278137, 0.026715930551290512, 0.006191151682287455, 0.07277345657348633, -0.08008334040641785, 0.08321250975131989, 0.0947827622294426, -0.03600667789578438, -0.020505523309111595, -0.16660794615745544, 0.14857710897922516, 0.003918407950550318, -0.03240049630403519, 0.11734869331121445, -0.19031888246536255, -0.04812882840633392, -0.01690651848912239, 0.09119146317243576, -0.2587898075580597, 0.01585283875465393, -0.07547508925199509, -0.015242785215377808, -0.05941072106361389, 0.019262541085481644, -0.39815282821655273, 0.034976571798324585, 0.017347486689686775, -0.07277728617191315, -0.05770275369286537, -0.0324217788875103, 0.06964662671089172, -0.1964113414287567, 0.08176348358392715, 0.03879440203309059, -0.3230748474597931, 0.10535334795713425, -0.254970908164978, -0.013693587854504585, 0.0481983944773674, -0.1309964805841446, -0.0010954339522868395, 0.06983907520771027, -0.027075720950961113, -0.05985257029533386, 0.05657653510570526, 0.044969432055950165, 0.09605172276496887, -0.13531340658664703, 0.2555774748325348, 0.3374853730201721, -0.07105404883623123, -0.015587038360536098, 0.007013380993157625, 0.1211002990603447, 0.004158793482929468, -0.03222101926803589, -0.34044530987739563, -0.304403692483902, -0.09957298636436462, -0.07046756893396378, 0.01026040781289339, -0.010415955446660519, 0.10630109906196594, 0.016010982915759087, -0.11426420509815216, 0.002035241574048996, -0.061992306262254715, -0.00474194809794426, -0.11992818862199783, -0.08546183258295059, -0.06572094559669495, -0.016951581463217735, 0.19944608211517334, 0.1035802960395813, -0.010434151627123356, -0.12227094173431396, -0.061471082270145416, -0.07296305149793625, -0.01148939598351717, -0.04003434628248215, 0.21075981855392456, -0.275661438703537, -0.036121901124715805, -0.07093676924705505, 0.0011492710327729583, 0.0652594342827797, 0.0530770979821682, 0.006410686764866114, 0.05043262243270874, -0.1253088414669037, 0.02041703276336193, 0.3007655441761017, 0.11425318568944931, -0.1691398024559021, 0.030767522752285004, 0.003318557981401682, 0.07050493359565735, -0.13138660788536072, -0.15689517557621002, 0.31755322217941284, 0.2934349477291107, 0.4361265301704407, 0.29806435108184814, -0.10020652413368225, 0.004906696267426014, 0.012926694937050343, 0.21015718579292297, -0.22772349417209625, -0.056784436106681824, -0.10860946774482727, 0.46377360820770264, -0.04649012163281441, -0.08335037529468536, 0.7341334223747253, 0.16565969586372375, 0.041175637394189835, -0.19276286661624908, -0.5976959466934204, 0.23444101214408875, 0.4578811526298523, 0.05736729875206947, 0.16791696846485138, -0.04434069246053696, -0.03627113252878189, -0.08415011316537857, 0.11372292041778564, 0.0010096717160195112, 0.3110949993133545, 0.1808195263147354, -0.15610545873641968, -0.0308803990483284, 0.46781203150749207, 0.25466206669807434, 0.12233953922986984, -0.07603437453508377, 0.053246431052684784, -0.09436739236116409, -0.23195476830005646, 0.4470919966697693, -0.012416948564350605, 0.006560015957802534, 0.08126377314329147, -0.015897398814558983, 0.15590859949588776, -0.03797124698758125, -0.013944331556558609, -0.01835412159562111, -0.12861253321170807, 0.06328427791595459, 0.009794138371944427, -0.0997462272644043, 0.12293016165494919, 0.06032630428671837, -0.057036615908145905, 0.01197079848498106, -0.23194214701652527, -0.02710844576358795, 0.1332702785730362, -0.09964685887098312, 0.0712796151638031, -0.25034135580062866, -0.05574226751923561, -0.05192442238330841, 0.07879971712827682, -0.02372368983924389, -0.006289336364716291, -0.31923556327819824, -0.08649291098117828, 0.11050398647785187, 0.27753907442092896, -0.21003897488117218, 0.3123902678489685, 0.030569659546017647, -1.2155649662017822, 0.26131749153137207, 0.029545582830905914, 0.029723014682531357, -0.23657096922397614, 0.11235202103853226, 0.007391632068902254, 0.2396474927663803, -0.06565751135349274, 0.00797461997717619, -0.12113585323095322, 0.009580597281455994, 0.09452354907989502, 0.06853688508272171, 0.046586040407419205, 0.032537199556827545, 0.10979556292295456, -0.021793294697999954, 0.06990566104650497, -0.004350054543465376, -0.013594083487987518, 0.6516096591949463, -0.03775305673480034, -0.027848169207572937, 0.010027284733951092, -0.06815209239721298, 0.006198477931320667, -0.17906109988689423, -0.07573426514863968, -0.053689394146203995, -0.35489147901535034, 0.045118190348148346, 0.058524586260318756, -0.016723668202757835, -0.06271270662546158, -0.13615362346172333, 0.050998836755752563, 0.2116478681564331, -0.013596043922007084, 0.0265241339802742, 0.09274215251207352, -0.07639536261558533, 0.4534785747528076, 0.037442322820425034, 0.02093656361103058, 0.02664285898208618, 0.12479132413864136, -0.0835905373096466, -0.9198558926582336, 0.13857224583625793, -0.05809784680604935, 0.03193029761314392, -0.5709003210067749, 0.16321948170661926, 0.39681464433670044, -0.023958977311849594, 0.043648507446050644, 0.10368988662958145, 0.20038042962551117, -0.0077937450259923935, 0.5205613970756531, 0.25140950083732605]], "model.point_embeddings.1.weight": [[-0.2001458704471588, -0.11837311834096909, -0.20145225524902344, 0.06265991926193237, -0.037615858018398285, 0.02180297113955021, -0.038792479783296585, 0.06363777816295624, -0.05413705110549927, -0.1077573373913765, 0.09450474381446838, 0.048451587557792664, 0.1667616069316864, -0.16202503442764282, 0.09837948530912399, 0.0004908606060780585, 0.1370118260383606, -0.11366768181324005, -0.0056264060549438, -0.004732238128781319, -0.05832482874393463, -0.07484474033117294, 0.03376137837767601, 0.007192427758127451, -0.01998722366988659, -0.03514527529478073, -0.020297426730394363, 0.047102827578783035, -0.007503623608499765, 0.07433722168207169, 0.16211311519145966, 0.2390870451927185, 0.002830244367942214, 0.05570093169808388, -0.03291832283139229, -0.13158197700977325, -0.029600750654935837, -0.10892657935619354, -0.04807014390826225, 0.030225085094571114, -0.0807957574725151, -0.030594946816563606, -0.01077307015657425, -0.21852949261665344, -0.048627421259880066, 0.05096987634897232, -0.0888366773724556, 0.002657952718436718, 0.10905036330223083, -0.008007055148482323, 0.004511456470936537, 0.06500209867954254, 0.1390095055103302, 0.06253448873758316, 0.02976805530488491, 0.00996539555490017, 0.20805156230926514, 0.02182758040726185, 0.024176647886633873, 0.10721428692340851, 0.018882837146520615, 0.10463643074035645, -0.07440612465143204, -0.03315636143088341, 0.06237158924341202, 0.0035699130967259407, 0.2060033231973648, 0.17520487308502197, 0.16482850909233093, 0.023656170815229416, 0.053099554032087326, -0.07363448292016983, 0.013760597445070744, 0.055467765778303146, -0.000424073456088081, 0.0007362570613622665, -0.028574226424098015, 0.042309388518333435, 0.12285791337490082, 0.1373753547668457, 0.043008629232645035, -0.009136158041656017, 0.02097189426422119, 0.0420144647359848, -0.26745641231536865, -0.0077350144274532795, -0.005288115702569485, -0.11598530411720276, -0.1072351485490799, -0.014382504858076572, -0.23182383179664612, -0.0025301624555140734, 0.01171146985143423, 0.06081269308924675, -0.11355853080749512, 0.040990181267261505, 0.10314793884754181, -0.07739286124706268, 0.05604325607419014, 0.002392102964222431, 0.10113086551427841, -0.06105566769838333, 0.055589962750673294, 0.031136320903897285, 0.09045254439115524, 0.0002480166149325669, -0.019589057192206383, -0.14731614291667938, -0.14059613645076752, -0.03455188497900963, 0.1717492938041687, 0.006373754236847162, -0.12070122361183167, -0.11021523177623749, 0.1340949386358261, 0.02090449258685112, 0.006189687643200159, 0.07219447195529938, 0.14132513105869293, -0.11836457252502441, -0.14959564805030823, 0.09558627009391785, -0.05095510184764862, -0.0396847128868103, 0.01802620105445385, 0.01155955158174038, 0.03425981476902962, -0.07508590072393417, 0.062098972499370575, -0.06622939556837082, 0.08538644015789032, -0.04262717440724373, 0.07902088016271591, 0.029845736920833588, 0.0090733477845788, -0.1790834665298462, -0.06734853237867355, -0.1745431125164032, -0.06990452110767365, 0.3647274672985077, -0.05226944386959076, -0.05359693244099617, -0.006653955206274986, -0.08996855467557907, 0.016697397455573082, 0.16725386679172516, -0.07761771976947784, 0.004147488158196211, -0.002421512035652995, 0.0639413520693779, -0.17948433756828308, -0.022299597039818764, -0.07848650962114334, 0.36176496744155884, 0.19484972953796387, -0.0867319107055664, 0.044143665581941605, 0.17926762998104095, 0.11282277852296829, 0.2319825291633606, 0.00907210260629654, -0.030714740976691246, 0.031054558232426643, -0.040276069194078445, -0.031071703881025314, 0.1120721697807312, 0.1116882935166359, 0.08472485095262527, 0.010700760409235954, 0.20470723509788513, -0.017791301012039185, -0.08126923441886902, -0.07682716846466064, -0.07336730509996414, -0.29708796739578247, 0.022595245391130447, 0.024511827155947685, -0.04875830188393593, -0.05722180753946304, 0.2238752245903015, -0.3537479341030121, -0.014053584076464176, 0.06891624629497528, -0.03185129910707474, -0.06146591529250145, -0.04984759911894798, -0.01753096841275692, -0.007198033854365349, 0.09694571793079376, -0.25608110427856445, 0.34968212246894836, 0.0028691827319562435, 0.3392379581928253, 0.0751597210764885, 0.03408569097518921, -0.17394253611564636, -0.05240325257182121, 0.1302274465560913, 0.004312945995479822, 0.21566347777843475, -0.012517890892922878, -0.0892753154039383, 0.21153950691223145, 0.0070958975702524185, 0.035650450736284256, -0.16723580658435822, -0.1618572175502777, 0.02661374770104885, -0.016688046976923943, 0.05588530749082565, -0.04513692483305931, -0.047713201493024826, -0.27512937784194946, -0.13391506671905518, 0.010800517164170742, 0.14844608306884766, 0.06939727067947388, 0.024114709347486496, 0.26577135920524597, 0.05059199035167694, -0.03408358246088028, 0.09228883683681488, 0.2971341013908386, -0.18420392274856567, -0.13649918138980865, 0.023787105455994606, 0.02536095678806305, -0.012053700163960457, 0.02411222830414772, 0.12512238323688507, -0.0318237766623497, 0.06897777318954468, 0.018819985911250114, -0.009433788247406483, -0.006604133639484644, -0.02071317285299301, -0.01622830145061016, 0.34074413776397705, 0.33892935514450073, -0.006567209959030151, -0.12510722875595093, -0.09132689237594604, 0.09946322441101074, 0.1393413245677948, -0.08070144802331924, -0.15880326926708221, -0.11148634552955627, -0.17596909403800964, -0.09778626263141632, -0.13624802231788635, 0.10907546430826187, 0.19324874877929688, 0.10839693993330002, -0.004374672658741474, 0.017500415444374084, 0.039620060473680496]], "model.point_embeddings.2.weight": [[0.0611572340130806, -0.18565545976161957, -0.3142006993293762, 0.1641128957271576, -0.07780016958713531, -0.06386499106884003, 0.04772372916340828, 0.1874358206987381, -0.0820411965250969, -0.01142189372330904, 0.3477634787559509, 0.10805720090866089, -0.07724861055612564, 0.03431140258908272, -0.18741093575954437, 0.03228408843278885, -0.21876130998134613, 0.07663661986589432, 0.0356852225959301, -0.01965881511569023, -0.04741506278514862, 0.10500231385231018, 0.05224347859621048, -0.028307054191827774, 0.05248485878109932, 0.07153141498565674, -0.0511908084154129, -0.23773092031478882, -0.0867619588971138, 0.3771560490131378, -0.24628755450248718, 0.054917413741350174, -0.010934972204267979, -0.016499029472470284, -0.03536098450422287, 0.3462926745414734, 0.20425568521022797, -0.10745158046483994, 0.1812962293624878, -0.09491373598575592, -0.03216129168868065, -0.14995518326759338, 0.03850848600268364, -0.05422589182853699, 0.0894174575805664, -0.08681859821081161, -0.003491842420771718, -0.04244536533951759, -0.27242204546928406, -0.13655947148799896, -0.005594953894615173, -0.18398673832416534, 0.47124433517456055, -0.043714627623558044, 0.0745420828461647, 0.016163399443030357, 0.18242505192756653, -0.08350038528442383, -0.005803158041089773, 0.1303243637084961, -0.10714271664619446, 0.014227025210857391, -0.026179548352956772, -0.09114166349172592, -0.03882546350359917, 0.17695589363574982, -0.30654728412628174, 0.03452940285205841, 0.5601335763931274, 0.024646542966365814, 0.05385545268654823, -0.0161875132471323, -0.017603717744350433, 0.17253898084163666, -0.01665521413087845, -0.023405667394399643, 0.07385341823101044, 0.11034740507602692, 0.5913594961166382, -0.039134133607149124, -0.24745473265647888, -0.02997606061398983, -0.06696464121341705, -0.03062504157423973, 0.1665394902229309, -0.16880516707897186, 0.008728532120585442, -0.13811436295509338, 0.19194632768630981, 0.035995107144117355, -0.186374232172966, -0.10542988777160645, 0.01906166598200798, -0.0638444572687149, -0.05208686366677284, -0.1149735376238823, 0.22846132516860962, 0.025735149160027504, -0.21695785224437714, -0.029863664880394936, -0.041309330612421036, 0.02936020866036415, 0.25348103046417236, -0.0055857254192233086, 0.5222846269607544, 9.164562652586028e-05, -0.41131556034088135, -0.10705564171075821, -0.393736869096756, -0.07423633337020874, -0.29475781321525574, -0.012132703326642513, 0.08949489146471024, 0.09617891907691956, 0.21476267278194427, 0.11052648723125458, -0.01862720027565956, 0.20392060279846191, 0.10076040029525757, -0.36876946687698364, 0.08140607923269272, -0.08555632084608078, -0.1431681364774704, -0.08568107336759567, -0.06759443879127502, -0.0025864490307867527, 0.04360125586390495, -0.1387341469526291, -0.11857613176107407, 0.11240868270397186, -0.006988074630498886, -0.10532721877098083, 0.3814356029033661, -0.07098010927438736, 0.024830106645822525, 0.1513192355632782, -0.21974363923072815, -0.4322068989276886, 0.0018294055480509996, 0.22032636404037476, -0.18368642032146454, 0.12243479490280151, 0.18362857401371002, -0.1154709905385971, 0.2851904332637787, 0.27145469188690186, 0.3253473937511444, -0.003936216700822115, 0.12691327929496765, -0.17628441751003265, -0.3150343596935272, 0.10105154663324356, 0.04278825223445892, 0.260689377784729, 0.4187450408935547, -0.25489315390586853, -0.21526063978672028, -0.00827196054160595, 0.20913924276828766, 0.061232272535562515, 0.0184953510761261, -0.12241242080926895, -0.049049779772758484, 0.2725631296634674, -0.08318252116441727, -0.4990844428539276, 0.5090929269790649, 0.6069253087043762, -0.07475334405899048, 0.05418563634157181, 0.03160807117819786, -0.29625776410102844, -0.14904028177261353, -0.07105383276939392, 0.004777337424457073, -0.029926681891083717, 0.6753072142601013, -0.12124139815568924, 0.13236162066459656, -0.2172512412071228, 0.40430569648742676, 0.014878103509545326, -0.12756511569023132, 0.0794406458735466, -0.5123209953308105, 0.26591095328330994, -0.04428144171833992, 0.03440720960497856, 0.3976913094520569, -0.1981215626001358, 0.2685365676879883, 0.24217920005321503, 0.2692558765411377, -0.0900307223200798, -0.0044486140832304955, -0.6564865708351135, 0.032287027686834335, 0.19116230309009552, -0.001829797402024269, 0.199431374669075, -0.028147932142019272, -0.1263381689786911, -0.2028712034225464, 0.0018266182160004973, -0.1471119076013565, -0.8090811371803284, -0.309126079082489, 0.17960582673549652, -0.06106484308838844, 0.05301031842827797, 0.03136026859283447, -0.19033749401569366, 0.1791757047176361, 0.45615556836128235, -0.008434110321104527, -0.3065246641635895, 0.03770687058568001, -0.036179445683956146, -0.10841035842895508, -0.16903559863567352, 0.025548845529556274, -0.11218961328268051, 0.12737837433815002, 0.008832336403429508, 0.17347171902656555, 0.052097026258707047, -0.4191286563873291, 0.015122613869607449, -0.10831113159656525, 0.1035691425204277, -0.049521204084157944, 0.22073611617088318, -0.26277604699134827, -0.038335904479026794, -0.19869054853916168, 0.4742717146873474, -0.10562463104724884, 0.2676953971385956, -0.09189103543758392, -0.022767478600144386, -0.02684788592159748, -0.25905361771583557, -0.12840808928012848, 0.1344066709280014, 0.1589905023574829, 0.43305572867393494, -0.1540403664112091, -0.3735589385032654, 0.10294806957244873, 0.051489412784576416, -0.08698296546936035, 0.21367330849170685, -0.16143099963665009, 0.001696815830655396, -0.053574338555336, -0.0032965796999633312]], "model.point_embeddings.3.weight": [[-0.35088369250297546, -0.08754539489746094, 0.514795184135437, 0.270052045583725, -0.4292333424091339, -0.10809939354658127, -0.08836092054843903, -0.059472210705280304, -0.0022499077022075653, 0.073947973549366, -0.02455565705895424, -0.08643405139446259, -0.22432494163513184, 0.0994533970952034, 0.330776184797287, -0.04423028230667114, 0.16350646317005157, -0.11455507576465607, 0.19369274377822876, -0.016500582918524742, -0.13049425184726715, 0.26969683170318604, -0.16187192499637604, 0.00409269193187356, 0.01707056537270546, -0.06944338977336884, 0.07905888557434082, 0.16726605594158173, -0.10273284465074539, 0.23434090614318848, 0.13400191068649292, 0.023599516600370407, 0.0024194272700697184, 0.07504403591156006, -0.002752969041466713, -0.1257835477590561, -0.1439656913280487, -0.5264574289321899, 0.34160923957824707, 0.1871127039194107, -0.027582580223679543, -0.3499985933303833, -0.06750059127807617, -0.30689316987991333, 0.10637382417917252, 0.40378594398498535, -0.17097483575344086, 0.019647231325507164, 0.13899630308151245, 0.2289440780878067, 0.3911479711532593, -0.35857996344566345, 0.5226860046386719, -0.3155158460140228, -0.003188510425388813, -0.05809922516345978, -0.5028606653213501, 0.3051910102367401, 0.014871147461235523, 0.03418007865548134, 0.4484160244464874, -0.08867806196212769, 0.04766908288002014, -0.2600895166397095, 0.08766334503889084, 0.2897355854511261, 0.1482265740633011, 0.2869033217430115, -0.15204429626464844, -0.28919368982315063, 0.27752310037612915, -0.10360993444919586, 0.056065160781145096, -0.2852832078933716, 0.13731463253498077, -0.014742584899067879, 0.04537217319011688, -0.12022142112255096, -0.13850617408752441, -0.10145074874162674, 0.4350435733795166, 0.04425417631864548, 0.00999161135405302, -0.09114964306354523, 0.030211590230464935, 0.2851315140724182, -0.018012773245573044, -0.07124858349561691, 0.07373040914535522, 0.0434686504304409, -0.14948682487010956, 0.1418038308620453, -0.04625936225056648, 0.2441830337047577, -0.05564460530877113, -0.16613900661468506, 0.07953904569149017, 0.021395055577158928, 0.10438606142997742, 0.03254905343055725, 0.03794069215655327, 0.18132150173187256, 0.03055620938539505, 0.07580754160881042, -0.06073416769504547, 0.014070864766836166, 0.08425023406744003, -0.22186927497386932, -0.03541523218154907, 0.10829160362482071, 0.0036039503756910563, 0.04998445883393288, 0.1658533811569214, 0.012438877485692501, 0.012604297138750553, 0.10317504405975342, 0.4350306987762451, 0.10227759182453156, 0.029903575778007507, 0.1989780217409134, -0.2607736885547638, -0.410734623670578, 0.2456512451171875, 0.09608414769172668, -0.30272188782691956, 0.00010909025149885565, 0.05854465439915657, -0.18116223812103271, 0.09809069335460663, 0.021915772929787636, -0.018221799284219742, -0.1734028160572052, 0.31122541427612305, -0.04691356420516968, 0.04663471505045891, -0.09802331030368805, 0.13804121315479279, 0.25449687242507935, 0.04135015979409218, 0.4028143584728241, 0.11615990847349167, 0.09953605383634567, -0.43316590785980225, -0.10836615413427353, -0.43909260630607605, -0.01886594109237194, 0.140477254986763, 0.009442200884222984, 0.06554131954908371, 0.21883171796798706, -0.14951695501804352, -0.04818321019411087, -0.06714854389429092, 0.2724514305591583, -0.12256598472595215, -0.17658370733261108, -0.24511019885540009, -0.45980149507522583, -0.004540464840829372, 0.29130372405052185, 0.006062875967472792, -0.0033357234206050634, 0.2281571626663208, -0.30859869718551636, -0.10543633997440338, 0.07078389823436737, -0.10944294184446335, -0.2612490952014923, 0.2990095913410187, -0.19688376784324646, 0.0003257448843214661, -0.25684237480163574, 0.3429220914840698, -0.11070248484611511, -0.1117703840136528, 0.026291552931070328, -0.24899600446224213, 0.13692180812358856, -0.10453081876039505, 0.22744838893413544, -0.09701384603977203, 0.06690578162670135, -0.04638717323541641, -0.09075773507356644, -0.05429752543568611, -0.26811477541923523, -0.025010058656334877, -0.06298095732927322, -0.11008143424987793, 0.047362808138132095, 0.14626866579055786, 0.24205255508422852, 0.25096985697746277, 0.18452902138233185, -0.06761409342288971, 0.21946479380130768, 0.08947089314460754, -0.09393724054098129, -0.03339415043592453, -0.10561762750148773, 0.008480814285576344, 0.09042154252529144, 0.15741190314292908, -4.931745820613287e-07, -0.3412545621395111, 0.14837704598903656, 0.08126692473888397, 0.05906892940402031, 0.27908483147621155, 0.02280006743967533, 0.08166246861219406, 0.1760132759809494, 0.26945844292640686, -0.5042025446891785, -0.007216235157102346, -0.07632472366094589, 0.13176539540290833, -0.16444198787212372, 0.29076245427131653, 0.5239083170890808, -0.05608874186873436, -0.13137343525886536, 0.21616260707378387, 0.3103545010089874, 0.21265387535095215, 0.17668326199054718, 0.2239615023136139, -0.027909614145755768, -0.041735272854566574, -0.2299591302871704, 0.06234538555145264, 0.17197874188423157, -0.2625230848789215, 0.0067592523992061615, -0.21859733760356903, 0.12384945154190063, -0.09426899999380112, 0.24550868570804596, -0.009191172197461128, -0.0023852980230003595, -0.29367926716804504, -0.053914252668619156, 0.09107072651386261, 0.11373577266931534, -0.5809653401374817, -0.062962606549263, -0.265760213136673, 0.036789342761039734, 0.04839060455560684, -0.07483001053333282, -0.05916332080960274, 0.20223022997379303, 0.31213778257369995, 0.012626930139958858, 0.05045488476753235, 0.37910932302474976]], "model.not_a_point_embed.weight": [[-0.14369016885757446, -0.07457871735095978, -0.023358343169093132, -0.04517034441232681, 0.24765940010547638, -0.03553243353962898, 0.030298249796032906, 0.001379493623971939, 0.11407993733882904, 0.17929071187973022, 0.01948706991970539, -0.0359422042965889, 0.10495754331350327, -0.09846560657024384, 0.006069187540560961, -0.0006137692835181952, -0.016358334571123123, 0.15788353979587555, 0.04432974383234978, -0.012797313742339611, 0.05078325793147087, 0.06735239177942276, -0.10614430159330368, 0.029402775689959526, -0.4817770719528198, -0.23377932608127594, -0.1515713483095169, -0.09119907021522522, -0.05016881972551346, 0.10595785826444626, 0.18643759191036224, 0.09724059700965881, 0.013971867971122265, -0.12064662575721741, -0.025127742439508438, 0.22863440215587616, 0.14769303798675537, 0.3110312521457672, -0.37277039885520935, 0.07280179858207703, 0.6493926048278809, -0.11077305674552917, 0.019956620410084724, -0.1844428926706314, 0.312764972448349, 0.06502599269151688, 0.057014551013708115, 0.05267917364835739, 0.3851766586303711, -0.06910787522792816, 0.02421945333480835, -0.3806820809841156, -0.008654115721583366, 0.11513511091470718, -0.10126843303442001, -0.12506116926670074, 0.23141123354434967, -0.22095444798469543, -0.013096208684146404, 0.14060544967651367, -0.040438439697027206, -0.30381885170936584, 0.021908756345510483, 0.0988619476556778, -0.14578090608119965, -0.09603387862443924, 0.15956290066242218, -0.05921353027224541, 0.05501483380794525, 0.0698273628950119, -0.15012109279632568, 0.17769207060337067, 0.2096167653799057, -0.023444030433893204, -0.008806811645627022, 0.006445527076721191, -0.18914103507995605, -0.12208066880702972, 0.07561841607093811, -0.08730189502239227, -0.2289116382598877, 0.02347278594970703, 0.15717816352844238, 0.2817043364048004, 0.35476768016815186, -0.17379465699195862, -0.005742496345192194, -0.05278174206614494, -0.06427516788244247, -0.000889191054739058, -0.12571598589420319, -0.4820173382759094, -0.3514038324356079, 0.07477524876594543, 0.24713830649852753, 0.14894454181194305, 0.07767315953969955, -0.03798075392842293, -0.08502175658941269, 0.03089793212711811, 0.12091314792633057, 0.15211355686187744, 0.08173197507858276, 0.005515029653906822, -0.1979561597108841, 0.04573708027601242, 0.15723870694637299, -0.08687473833560944, -0.2691692113876343, 0.023196212947368622, 0.34484463930130005, -0.031080041080713272, -0.12489388883113861, 0.2824811637401581, -0.14452271163463593, -0.14830611646175385, -0.48052117228507996, -0.2638477385044098, -0.0466291680932045, 0.04983782768249512, 0.2967984080314636, -0.16413502395153046, -0.07718949764966965, 0.22423847019672394, -0.17898939549922943, -0.04231077805161476, 0.16538728773593903, 0.17481237649917603, 0.35193154215812683, 0.4810008108615875, -0.204944908618927, 0.0937214121222496, -0.13411827385425568, 0.07606491446495056, 0.15506477653980255, 0.3364936411380768, 0.12891477346420288, 0.2245420217514038, 0.1445452868938446, -0.0661502480506897, 0.08358948677778244, 0.45367687940597534, 0.2691335380077362, 0.13744904100894928, -0.1778748482465744, -0.011074413545429707, 0.43722885847091675, 0.017899706959724426, 0.11384586989879608, -0.24205084145069122, 0.19702279567718506, 0.03008333407342434, -0.10412520170211792, -0.023802876472473145, -0.23439531028270721, -0.22036544978618622, 0.014009161852300167, -0.03933263570070267, 0.2625120282173157, -0.04511445015668869, -0.020623667165637016, 0.07249228656291962, -0.14436262845993042, 0.06577979773283005, -0.3704347014427185, 0.015319696627557278, -0.15719997882843018, -0.2819502055644989, 0.3951742351055145, -0.18619249761104584, 0.036399032920598984, -0.17540501058101654, -0.31779003143310547, -0.2553243339061737, 0.14998307824134827, -0.03387296199798584, -0.129877969622612, 0.037641145288944244, 0.11313323676586151, 0.20325249433517456, 0.05495269596576691, -0.00881634745746851, -0.04167826846241951, -0.3512854278087616, -0.031077908352017403, -0.015388034284114838, 0.023300686851143837, -0.1438433974981308, -0.18085379898548126, -0.4662759602069855, -0.04341490939259529, -0.0028001987375319004, -0.05450893193483353, 0.31190842390060425, 0.018014108762145042, 0.0028796582482755184, 0.10782270133495331, -0.4799526631832123, -0.1399390697479248, -0.11227553337812424, 0.09110110998153687, 0.33504751324653625, 0.2361612170934677, -0.009279914200305939, -0.03642968088388443, 0.1987091302871704, -0.10097219794988632, 0.05100604146718979, -0.03942733258008957, -0.043751951307058334, -0.1671682596206665, -0.30738866329193115, 0.10039170831441879, -0.1092456504702568, -0.02562015876173973, 0.010520505718886852, 0.1384672373533249, -0.002998689655214548, -0.465926855802536, -0.40120014548301697, 0.10521874576807022, -0.39621174335479736, 0.11480794101953506, -0.012056682258844376, 0.11866961419582367, 0.09921211004257202, 0.08638841658830643, -0.004542892333120108, -0.16171710193157196, 0.322494775056839, 0.14549647271633148, -0.17144495248794556, -0.019094519317150116, -0.010014837607741356, 0.09831899404525757, -0.05755416676402092, -0.26639363169670105, -0.042315371334552765, -0.24310904741287231, 0.0015831803902983665, -0.006061814725399017, -0.0981307327747345, 0.03221098333597183, 0.01410585269331932, 0.33670395612716675, 0.2065971940755844, -0.19892439246177673, 0.19669492542743683, 0.0990561693906784, 0.1574443131685257, -0.13386550545692444, 0.11910916119813919, -0.04369956627488136, 0.021046701818704605, -0.08153901994228363, 0.09662872552871704]], "model.mask_downscaling.0.weight": [[[[0.015695936977863312, 0.006005801726132631], [0.002269668271765113, -0.004266268573701382]]], [[[-0.0014574871165677905, 0.018819071352481842], [-0.008096429519355297, 0.010588058270514011]]], [[[0.0013943294761702418, -0.01106715016067028], [0.02076040208339691, 0.009564467705786228]]], [[[-0.005186550784856081, -0.012491397559642792], [-0.011460172943770885, -0.009278899990022182]]]], "model.mask_downscaling.0.bias": [-0.29450058937072754, 0.11940333247184753, 0.08365784585475922, 0.04071080684661865], "model.mask_downscaling.3.weight": [[[[-0.01906903274357319, -0.021110104396939278], [0.16812238097190857, -0.045547716319561005]], [[-0.003922174219042063, -0.02206076681613922], [0.020205838605761528, -0.019910551607608795]], [[-0.0023388080298900604, -0.024731863290071487], [0.05802062153816223, -0.01994641125202179]], [[0.03916839510202408, 0.004849368240684271], [-0.03866944462060928, 0.0055865030735731125]]], [[[-2.70216023636749e-05, 0.16157634556293488], [-0.03280084952712059, -0.025603337213397026]], [[0.0003798392426688224, 0.009955523535609245], [-0.01846684142947197, -0.005125266034156084]], [[-0.008366691879928112, 0.03685899078845978], [-0.014889110811054707, -0.013233203440904617]], [[-0.017443180084228516, -0.05763954669237137], [0.04045000672340393, -0.013032615184783936]]], [[[0.02212727814912796, -0.00017966308223549277], [-0.0039776707999408245, 0.02219514362514019]], [[0.001350242760963738, 0.019232550635933876], [-0.0006940296152606606, 0.010618404485285282]], [[-0.009910956025123596, -0.0023932899348437786], [0.0021789211314171553, 0.005633373279124498]], [[-0.010987011715769768, -0.11628458648920059], [-0.002551340265199542, -0.10443344712257385]]], [[[0.21998539566993713, -0.059296004474163055], [-0.0312933474779129, -0.015083661302924156]], [[0.024515442550182343, -0.018271030858159065], [0.009752746671438217, -0.0074893091805279255]], [[0.06636486202478409, -0.022388657554984093], [-0.01079578511416912, -0.006553138140588999]], [[-0.05268983915448189, 0.0364110954105854], [0.05918726697564125, 0.015496407635509968]]], [[[-0.01726389117538929, 0.00813966803252697], [-0.0059021213091909885, 0.012563692405819893]], [[-0.020524293184280396, -0.043411266058683395], [-0.04215901345014572, 0.09418503195047379]], [[-0.008784660138189793, -0.04418764263391495], [-0.027666322886943817, 0.06104660406708717]], [[0.00884014368057251, 0.046148281544446945], [0.014653785154223442, -0.050699446350336075]]], [[[-0.02787836082279682, -0.0323975570499897], [-0.04733165353536606, -0.02933271788060665]], [[-0.03743916377425194, -0.03342054784297943], [-0.03416624292731285, -0.031277988106012344]], [[-0.03442400321364403, -0.025256715714931488], [-0.03371116518974304, -0.02643713355064392]], [[0.012960819527506828, 0.004363464657217264], [0.010729368776082993, 0.007883952930569649]]], [[[0.019762706011533737, 0.0584585964679718], [-0.07848895341157913, 0.01623798906803131]], [[-0.03755105659365654, -0.036750562489032745], [0.07676014304161072, 0.019468870013952255]], [[-0.007765650749206543, -0.024743251502513885], [0.0743303969502449, -0.028680352494120598]], [[0.024127665907144547, 0.015371370129287243], [-0.01845567487180233, 0.05167405679821968]]], [[[-0.07462768256664276, -0.07646967470645905], [-0.09551477432250977, -0.08607655018568039]], [[-0.016969505697488785, -0.017801394686102867], [-0.022648511454463005, -0.017794311046600342]], [[-0.018443770706653595, -0.02362794429063797], [-0.015567203983664513, -0.0233090091496706]], [[0.005243922583758831, 0.008801205083727837], [0.017878971993923187, 0.006022319197654724]]], [[[-0.017406774684786797, 0.05240916833281517], [-0.003806688589975238, -0.012010475620627403]], [[-0.006488072220236063, 0.08761372417211533], [-0.011761141009628773, -0.03457050025463104]], [[0.003702069167047739, -0.021335633471608162], [-0.006812337785959244, -0.002691782545298338]], [[0.014902283437550068, 0.0032712623942643404], [-0.0006546854274347425, 0.06064648553729057]]], [[[0.04889011010527611, 0.014044034294784069], [0.041339240968227386, -0.11113599687814713]], [[-0.03973766788840294, 0.005623203702270985], [0.015987971797585487, 0.027431005612015724]], [[-0.03285490721464157, 0.06429494172334671], [-0.008754979819059372, 0.04826150834560394]], [[0.03536132350564003, 0.00024143655900843441], [-0.01865818165242672, 0.0831611379981041]]], [[[0.021067356690764427, 0.024483483284711838], [0.05640392005443573, 0.032664705067873]], [[0.01473904401063919, -0.01443319022655487], [0.025378098711371422, -0.009087377227842808]], [[0.014186770655214787, 0.014253607951104641], [0.003644082695245743, -0.002149041974917054]], [[-0.10944864898920059, -0.04031511768698692], [-0.09722079336643219, -0.03817383572459221]]], [[[-0.04529164358973503, -0.007643620949238539], [0.02719338983297348, 0.032551079988479614]], [[0.02828964591026306, -0.006983176805078983], [0.046682216227054596, 0.004673483781516552]], [[0.0100690433755517, -0.0029308279044926167], [-0.03514993563294411, -0.0015115381684154272]], [[0.019184941425919533, 0.014087776653468609], [0.0034930745605379343, 0.017350349575281143]]], [[[0.009698801673948765, -0.04501147195696831], [-0.030663248151540756, 0.09695349633693695]], [[-0.04987354949116707, 0.03974967449903488], [-0.025437964126467705, 0.029566502198576927]], [[-0.035033613443374634, 0.05558467283844948], [-0.005314450711011887, -0.019244927912950516]], [[0.03711641952395439, -0.021554378792643547], [0.008294859901070595, -0.012812704779207706]]], [[[0.05925224721431732, -0.01876055635511875], [-0.012659444473683834, 0.016147349029779434]], [[0.09041880071163177, 0.01899637095630169], [-0.04514962434768677, 0.0023122027050703764]], [[-0.042478397488594055, 0.011951843276619911], [0.004733722191303968, 0.001197564648464322]], [[-0.019226757809519768, 0.08532017469406128], [0.008162721991539001, 0.04253058508038521]]], [[[-0.06567704677581787, 0.011998753994703293], [-0.024501031264662743, 0.04615328833460808]], [[0.03409929573535919, -0.007845782674849033], [-0.04827084019780159, -0.01642169989645481]], [[0.07163466513156891, 0.0017962114652618766], [0.028158070519566536, 0.0018113505793735385]], [[-0.002350583439692855, 0.03742870315909386], [0.02811134234070778, 0.02150452323257923]]], [[[-0.008712124079465866, -0.036026936024427414], [-0.03705013170838356, 0.11347486078739166]], [[-0.03664451092481613, 0.003075353568419814], [0.02049807645380497, -0.02700687199831009]], [[-0.04060082510113716, -0.005151105113327503], [0.011944090016186237, 0.056765612214803696]], [[0.036101970821619034, 0.034179698675870895], [-0.005617655348032713, -0.07263420522212982]]]], "model.mask_downscaling.3.bias": [-0.0006435014074668288, 0.0005080820992588997, 0.005474763456732035, -0.0005620165029540658, -0.001646289718337357, -0.0043678004294633865, -0.0012304021511226892, -0.004388094414025545, -0.0021064875181764364, -0.00034659617813304067, 0.007019646465778351, -0.001181787229143083, -0.0010342994937673211, -0.0025412628892809153, -0.0004935528268106282, -0.0009348833118565381], "model.mask_downscaling.6.weight": [[[[0.09832464903593063]], [[0.04227834939956665]], [[-0.06410429626703262]], [[0.0774201825261116]], [[0.08771535009145737]], [[0.05762613192200661]], [[-0.05239883065223694]], [[0.027731118723750114]], [[-0.021915072575211525]], [[-0.08567498624324799]], [[0.01955089159309864]], [[-0.1342892050743103]], [[-0.02416960522532463]], [[-0.04849283769726753]], [[-0.09168767184019089]], [[0.10221440345048904]]], [[[0.09694939106702805]], [[0.08173559606075287]], [[-0.13314469158649445]], [[0.09234783798456192]], [[0.07778381556272507]], [[-0.06657338887453079]], [[0.02208894118666649]], [[-0.0212506502866745]], [[0.010436863638460636]], [[0.04048106074333191]], [[-0.04398147389292717]], [[-0.04862818866968155]], [[0.034549832344055176]], [[0.038376420736312866]], [[-0.0359220989048481]], [[0.12270708382129669]]], [[[-0.12221179157495499]], [[-0.21845704317092896]], [[0.11076956242322922]], [[-0.10620930790901184]], [[0.031235085800290108]], [[0.02961680293083191]], [[0.13664010167121887]], [[-0.07534994184970856]], [[-0.0026504122652113438]], [[0.1174178346991539]], [[0.06327425688505173]], [[0.17297261953353882]], [[-0.10545968264341354]], [[0.14505843818187714]], [[0.13894744217395782]], [[-0.10836086422204971]]], [[[-0.021023724228143692]], [[0.009558281861245632]], [[-0.011722269468009472]], [[0.010083472356200218]], [[0.04372631013393402]], [[-0.03313804417848587]], [[0.08742320537567139]], [[-0.009776257909834385]], [[0.027307434007525444]], [[0.01518622599542141]], [[0.053755022585392]], [[-0.019396597519516945]], [[-0.06314722448587418]], [[0.01407669112086296]], [[-0.04134322702884674]], [[-0.03653882071375847]]], [[[0.12220527976751328]], [[-0.07581416517496109]], [[0.05911706015467644]], [[0.11579911410808563]], [[-0.011151116341352463]], [[-0.13460110127925873]], [[0.0570223368704319]], [[-0.006574579980224371]], [[0.011720433831214905]], [[0.07416078448295593]], [[0.07903648912906647]], [[-0.03521571308374405]], [[-0.03715716302394867]], [[0.026043908670544624]], [[-0.04381834715604782]], [[-0.11734108626842499]]], [[[0.03448920696973801]], [[-0.008954489603638649]], [[0.1173090934753418]], [[-0.07233622670173645]], [[-0.04553394392132759]], [[-0.02365848980844021]], [[0.10640333592891693]], [[0.09407038241624832]], [[0.03586189076304436]], [[0.08767042309045792]], [[0.019869912415742874]], [[-0.009326618164777756]], [[-0.02353261038661003]], [[-0.003468393348157406]], [[0.0008856212953105569]], [[-0.06524163484573364]]], [[[-0.02420739457011223]], [[-0.009029220789670944]], [[-0.07154519855976105]], [[-0.05531945452094078]], [[0.098497673869133]], [[-0.15290994942188263]], [[0.05548868700861931]], [[-0.15117047727108002]], [[0.17135164141654968]], [[-0.014159884303808212]], [[-0.011876111850142479]], [[0.09735746681690216]], [[0.13171236217021942]], [[0.10114022344350815]], [[0.047349199652671814]], [[0.049497924745082855]]], [[[-0.01704726368188858]], [[0.036670103669166565]], [[0.055110856890678406]], [[0.00693889707326889]], [[0.02685495652258396]], [[0.02544173039495945]], [[0.005026652477681637]], [[0.03314562141895294]], [[0.005592701956629753]], [[-0.01555910799652338]], [[-0.009411361068487167]], [[0.0018132213735952973]], [[-0.023249082267284393]], [[0.00263077556155622]], [[-0.011243266053497791]], [[0.016333654522895813]]], [[[0.05412103235721588]], [[0.0022851629182696342]], [[-0.048537708818912506]], [[-0.006173907313495874]], [[-0.07206737995147705]], [[0.030533317476511]], [[-0.000373922724975273]], [[0.02185644954442978]], [[0.10450223833322525]], [[0.05410942807793617]], [[-0.002657144097611308]], [[0.04728532209992409]], [[0.0029846844263374805]], [[-0.03571304306387901]], [[-0.05408517271280289]], [[0.004590875469148159]]], [[[0.014963256195187569]], [[-0.028272682800889015]], [[-0.05001886934041977]], [[0.060190487653017044]], [[0.047995079308748245]], [[0.028745340183377266]], [[0.05663935840129852]], [[-0.013651157729327679]], [[0.003290580352768302]], [[0.049208737909793854]], [[0.00012090543896192685]], [[-0.09510230273008347]], [[0.13261152803897858]], [[-0.12848718464374542]], [[0.06693226844072342]], [[-0.1705481857061386]]], [[[-0.05898185446858406]], [[-0.010062836110591888]], [[0.11009110510349274]], [[-0.10114702582359314]], [[-0.005725866183638573]], [[-0.016607416793704033]], [[-0.04799939692020416]], [[0.0821039080619812]], [[0.00044142254046164453]], [[-0.022752728313207626]], [[-0.07894572615623474]], [[0.08452880382537842]], [[0.08896531164646149]], [[-0.008780209347605705]], [[0.043554969131946564]], [[-0.028384162113070488]]], [[[0.008658998645842075]], [[0.031528547406196594]], [[-0.0843905508518219]], [[0.02432929538190365]], [[0.08854809403419495]], [[-0.1522217094898224]], [[-0.12104674428701401]], [[-0.06224220618605614]], [[-0.03437810763716698]], [[-0.02373530901968479]], [[0.007830438204109669]], [[-0.020182708278298378]], [[0.08148917555809021]], [[0.06717764586210251]], [[0.04682020843029022]], [[-0.012667780742049217]]], [[[-0.10038416087627411]], [[0.032759614288806915]], [[-0.07832880318164825]], [[-0.047946199774742126]], [[-0.007098687347024679]], [[0.0190482959151268]], [[-0.03513750433921814]], [[-0.037503745406866074]], [[-0.03714360296726227]], [[-0.07974003255367279]], [[0.021003056317567825]], [[0.06839724630117416]], [[0.159213587641716]], [[-0.09091809391975403]], [[0.021278703585267067]], [[-0.06724721193313599]]], [[[0.05988842993974686]], [[-0.10636711865663528]], [[-0.09180982410907745]], [[0.1310884803533554]], [[0.0357518345117569]], [[-0.02084226720035076]], [[0.049645863473415375]], [[0.030211739242076874]], [[-0.013033373281359673]], [[0.00826305616647005]], [[-0.045614615082740784]], [[-0.05842336639761925]], [[-0.0020980180706828833]], [[0.05460464209318161]], [[0.02914833463728428]], [[-0.008606751449406147]]], [[[0.0063913725316524506]], [[-0.06185721978545189]], [[0.07095563411712646]], [[-0.06336971372365952]], [[0.13932426273822784]], [[-0.03412387892603874]], [[0.047560133039951324]], [[-0.10377375036478043]], [[0.057985808700323105]], [[0.10221442580223083]], [[-0.0874873548746109]], [[-0.03006913512945175]], [[0.05187799781560898]], [[0.006058654747903347]], [[-0.025192366912961006]], [[0.0532352589070797]]], [[[-0.08551374077796936]], [[0.05170632526278496]], [[-0.06338948756456375]], [[0.02955777943134308]], [[0.03430243581533432]], [[-0.008210519328713417]], [[-0.06569377332925797]], [[0.010541931726038456]], [[-0.05766803026199341]], [[-0.0020102285780012608]], [[-0.009669341146945953]], [[0.0016271865461021662]], [[-0.014346643351018429]], [[-0.05524805933237076]], [[0.0753340795636177]], [[0.0740402415394783]]], [[[0.055098071694374084]], [[-0.09756433963775635]], [[0.018445786088705063]], [[0.08217176795005798]], [[0.0332362987101078]], [[0.1680937558412552]], [[0.028984054923057556]], [[-0.07576870173215866]], [[0.018518036231398582]], [[-0.021448614075779915]], [[0.11987505108118057]], [[-0.022453129291534424]], [[-0.0870845764875412]], [[0.0034594449680298567]], [[0.028694551438093185]], [[-0.05403101071715355]]], [[[-0.014892266131937504]], [[0.0681673213839531]], [[-0.01088373176753521]], [[0.06276814639568329]], [[-0.06417414546012878]], [[0.035916008055210114]], [[-0.044855792075395584]], [[0.07333513349294662]], [[-0.013468869030475616]], [[0.06776434928178787]], [[-0.18228721618652344]], [[0.1619647592306137]], [[0.006646288093179464]], [[-0.006481410004198551]], [[0.011967670172452927]], [[0.03171217069029808]]], [[[-0.08138512074947357]], [[-0.03204602375626564]], [[0.05029825493693352]], [[-0.045863911509513855]], [[0.0025296874810010195]], [[0.08820158243179321]], [[0.014341531321406364]], [[0.0008360427455045283]], [[-0.024289926514029503]], [[0.0270090289413929]], [[-0.032225847244262695]], [[0.011949563398957253]], [[0.05291066691279411]], [[0.0349302813410759]], [[-0.015941975638270378]], [[0.12592220306396484]]], [[[0.0013384255580604076]], [[-0.002838961547240615]], [[-0.026158049702644348]], [[0.03026440739631653]], [[-0.0383414551615715]], [[0.005861903540790081]], [[-0.00567217031493783]], [[0.024948256090283394]], [[-0.012117725796997547]], [[0.009753742255270481]], [[-0.0028400167357176542]], [[0.03938527777791023]], [[-0.03956596925854683]], [[-0.0012059591244906187]], [[0.020730776712298393]], [[-0.030707329511642456]]], [[[-0.21682007610797882]], [[-0.08364969491958618]], [[0.07687514275312424]], [[-0.18573255836963654]], [[0.04695851728320122]], [[0.16837553679943085]], [[0.05235826596617699]], [[0.03417365252971649]], [[4.881513086729683e-05]], [[0.03430930897593498]], [[0.08879908919334412]], [[0.034841571003198624]], [[0.019333740696310997]], [[-0.08024702966213226]], [[-0.030185358598828316]], [[-0.036904171109199524]]], [[[0.2972903251647949]], [[0.15421803295612335]], [[0.03784826025366783]], [[0.3114648759365082]], [[-0.1366133987903595]], [[0.1529877781867981]], [[-0.20019836723804474]], [[0.04027538001537323]], [[-0.22916767001152039]], [[-0.08313648402690887]], [[0.10855671018362045]], [[-0.18341940641403198]], [[-0.029108883813023567]], [[-0.060654230415821075]], [[-0.08531578630208969]], [[-0.10258028656244278]]], [[[-0.04853702336549759]], [[0.024530479684472084]], [[0.10245759040117264]], [[-0.012828812934458256]], [[0.03000064007937908]], [[-0.0033971110824495554]], [[-0.04504786431789398]], [[0.05088850483298302]], [[0.04178702086210251]], [[-0.08011440932750702]], [[0.08339721709489822]], [[-0.10601712018251419]], [[0.10506186634302139]], [[-0.11535385996103287]], [[-0.007204556372016668]], [[-0.026731982827186584]]], [[[0.015272075310349464]], [[-0.006784962024539709]], [[-0.008130806498229504]], [[0.0050144013948738575]], [[0.020942745730280876]], [[0.0029913082253187895]], [[-0.07117536664009094]], [[0.05277036875486374]], [[0.008263521827757359]], [[0.01741977594792843]], [[0.05873832479119301]], [[-0.08767065405845642]], [[0.019160669296979904]], [[0.016945214942097664]], [[0.008215619251132011]], [[-0.011478547006845474]]], [[[-0.1298617273569107]], [[0.14710955321788788]], [[0.07315527647733688]], [[0.04774477332830429]], [[-0.0831151008605957]], [[0.2019364982843399]], [[-0.07637839764356613]], [[0.02747233398258686]], [[0.01467640046030283]], [[-0.055637259036302567]], [[0.0002474216162227094]], [[0.06590762734413147]], [[-0.0769934207201004]], [[0.11449161171913147]], [[-0.061424512416124344]], [[-0.18204660713672638]]], [[[-0.025320664048194885]], [[-0.06809569895267487]], [[0.01804501563310623]], [[-0.024202963337302208]], [[-0.060685623437166214]], [[-0.0518055222928524]], [[-0.061130158603191376]], [[-0.022771067917346954]], [[-0.07301034778356552]], [[-0.05693352594971657]], [[0.001531100831925869]], [[-0.07165520638227463]], [[-0.06676375865936279]], [[-0.058702901005744934]], [[-0.028525350615382195]], [[-0.061174940317869186]]], [[[0.09663452208042145]], [[-0.06046139821410179]], [[0.006332002114504576]], [[-0.11551786214113235]], [[0.04512317478656769]], [[-0.06347771733999252]], [[-0.01615048013627529]], [[-0.042242128401994705]], [[-0.05514183267951012]], [[-0.02803896926343441]], [[0.08670220524072647]], [[-0.04364374652504921]], [[-0.007978356443345547]], [[-0.12522709369659424]], [[0.04847290366888046]], [[0.044594913721084595]]], [[[-0.05849817767739296]], [[0.0337488017976284]], [[-0.024183427914977074]], [[-0.004861793480813503]], [[0.04318154230713844]], [[0.009738078340888023]], [[-0.003011377528309822]], [[-0.017068538814783096]], [[-0.01697932742536068]], [[0.014601022005081177]], [[-0.02789958566427231]], [[0.026019560173153877]], [[-0.06231757253408432]], [[0.08024376630783081]], [[0.002133783884346485]], [[-0.014392632991075516]]], [[[-0.037305451929569244]], [[-0.0013305385364219546]], [[-0.05984298512339592]], [[0.028458142653107643]], [[0.045827966183423996]], [[-0.004743155557662249]], [[-0.006400578189641237]], [[-0.00454904418438673]], [[0.029868153855204582]], [[0.037599705159664154]], [[-0.036671243607997894]], [[0.022190086543560028]], [[-0.034448690712451935]], [[0.03343695402145386]], [[0.008368401788175106]], [[-0.012194891460239887]]], [[[-0.038833752274513245]], [[-0.056651003658771515]], [[-0.06119721755385399]], [[0.07434114813804626]], [[0.08260773867368698]], [[0.08858099579811096]], [[-0.05900585278868675]], [[0.028246240690350533]], [[-0.03203637897968292]], [[-0.018381396308541298]], [[-0.029005777090787888]], [[0.0716475322842598]], [[0.04215570166707039]], [[0.0013578488724306226]], [[0.05851113051176071]], [[0.00995216891169548]]], [[[-0.017403945326805115]], [[0.03941566124558449]], [[-0.07930313795804977]], [[0.005911147687584162]], [[-0.008445598185062408]], [[0.18226413428783417]], [[-0.0024781322572380304]], [[0.08414412289857864]], [[0.08354083448648453]], [[-0.001228703767992556]], [[-0.1455814391374588]], [[0.022231681272387505]], [[-0.006838374305516481]], [[0.06520015746355057]], [[-0.039718203246593475]], [[-0.03194529190659523]]], [[[0.14327897131443024]], [[-0.11133156716823578]], [[0.08807134628295898]], [[0.06780675053596497]], [[-0.03470189496874809]], [[0.05879942327737808]], [[0.11788111180067062]], [[-0.020781168714165688]], [[-0.036000967025756836]], [[0.023708561435341835]], [[0.13596072793006897]], [[-0.004873609635978937]], [[-0.054069988429546356]], [[-0.04489592835307121]], [[0.057187095284461975]], [[0.0821143314242363]]], [[[-0.02568252570927143]], [[0.010156126692891121]], [[0.013453798368573189]], [[0.040333449840545654]], [[-0.06238945201039314]], [[-0.018182948231697083]], [[-0.009832639247179031]], [[-0.0019305817550048232]], [[-0.0017475999193266034]], [[-0.03181931748986244]], [[1.6347008568118326e-05]], [[0.026861704885959625]], [[-0.005504223983734846]], [[0.05207954719662666]], [[0.020510591566562653]], [[-0.03619793802499771]]], [[[-0.006402815226465464]], [[-0.026037883013486862]], [[-0.01834721304476261]], [[-0.03550882637500763]], [[-0.004187375772744417]], [[0.0010366021888330579]], [[0.020868200808763504]], [[0.015175994485616684]], [[-0.0015830659540370107]], [[-0.005868217907845974]], [[0.011466104537248611]], [[0.01794630102813244]], [[0.04083007201552391]], [[0.03804298862814903]], [[0.028166061267256737]], [[-0.035762760788202286]]], [[[-0.008205591700971127]], [[-0.040101710706949234]], [[-0.07068289071321487]], [[0.033375900238752365]], [[-0.01687486842274666]], [[0.03017163649201393]], [[-0.06800395995378494]], [[0.076298289000988]], [[0.05749532952904701]], [[0.008052709512412548]], [[0.03700708597898483]], [[-0.023536672815680504]], [[-0.00734109478071332]], [[-0.0254789087921381]], [[0.031888484954833984]], [[0.03895183652639389]]], [[[0.07850538194179535]], [[-0.0055905841290950775]], [[0.013763424940407276]], [[-0.01408293005079031]], [[0.02941836602985859]], [[-0.10865518450737]], [[0.05162607133388519]], [[0.013778123073279858]], [[-0.032146990299224854]], [[0.04515214264392853]], [[0.07573278993368149]], [[-0.01549931988120079]], [[-0.09305795282125473]], [[0.00039226957596838474]], [[0.07304712384939194]], [[0.1258222758769989]]], [[[-0.09453247487545013]], [[-0.005091771483421326]], [[0.002380985300987959]], [[0.0067504397593438625]], [[-0.052151404321193695]], [[0.0197380930185318]], [[-0.07518785446882248]], [[-0.15455184876918793]], [[-0.03320542722940445]], [[0.0682230070233345]], [[-0.020450659096240997]], [[0.010885195806622505]], [[0.013473056256771088]], [[0.012066682800650597]], [[0.08868435770273209]], [[-0.05729690566658974]]], [[[-0.018491823226213455]], [[0.02012236788868904]], [[0.022095803171396255]], [[0.028805319219827652]], [[-0.05238567292690277]], [[0.10357677191495895]], [[0.0019812544342130423]], [[-0.031420376151800156]], [[0.053351517766714096]], [[0.022207248955965042]], [[-0.021977562457323074]], [[-0.04805093631148338]], [[0.04456549510359764]], [[-0.009794536978006363]], [[0.01921278052031994]], [[-0.10955783724784851]]], [[[-0.028009019792079926]], [[0.015003757551312447]], [[0.01990220509469509]], [[-0.004823263734579086]], [[-0.04855950549244881]], [[-0.02762940526008606]], [[0.038139764219522476]], [[0.064667709171772]], [[0.03072415105998516]], [[0.06360863894224167]], [[-0.02705317549407482]], [[-0.06319823116064072]], [[-0.004450349602848291]], [[0.03082451969385147]], [[0.06629504263401031]], [[0.008033949881792068]]], [[[-0.03565824031829834]], [[0.1504989117383957]], [[-0.09952844679355621]], [[0.04112591594457626]], [[0.07007984817028046]], [[0.08609054982662201]], [[-0.050016555935144424]], [[0.0929938554763794]], [[0.04078035429120064]], [[-0.09293155372142792]], [[-0.0846886932849884]], [[-0.02488528937101364]], [[0.062360506504774094]], [[0.06520203500986099]], [[-0.10201366990804672]], [[-0.005153925158083439]]], [[[-0.04349542781710625]], [[0.07403143495321274]], [[-0.18792824447155]], [[-0.047955501824617386]], [[-0.025105925276875496]], [[-0.17848657071590424]], [[0.047003041952848434]], [[-0.01457009557634592]], [[0.09377477318048477]], [[0.025245370343327522]], [[-0.0441146045923233]], [[0.12269080430269241]], [[0.04047078639268875]], [[0.06861097365617752]], [[0.006986703258007765]], [[-0.025006411597132683]]], [[[0.00392642617225647]], [[-0.07986526936292648]], [[0.07314411550760269]], [[0.11155059188604355]], [[0.03202702850103378]], [[0.08695347607135773]], [[0.01542128250002861]], [[-0.04411925747990608]], [[-0.06678607314825058]], [[-0.008751880377531052]], [[-0.026424691081047058]], [[0.06756483018398285]], [[-0.08380456268787384]], [[0.1392436921596527]], [[-0.011391300708055496]], [[-0.10332856327295303]]], [[[-0.02631075493991375]], [[-0.025206981226801872]], [[-0.04127735272049904]], [[0.07395696640014648]], [[0.06155094504356384]], [[-0.0793718695640564]], [[-0.001938427216373384]], [[0.10002122074365616]], [[-0.03256534785032272]], [[-0.050878312438726425]], [[0.05142439156770706]], [[-0.015620858408510685]], [[0.002039112849161029]], [[-0.01964983157813549]], [[-0.07261499017477036]], [[0.09198058396577835]]], [[[-0.031087713316082954]], [[-0.00034031481482088566]], [[-0.11576326191425323]], [[0.01981188729405403]], [[0.014286473393440247]], [[-0.22596146166324615]], [[0.005581976845860481]], [[-0.022453436627984047]], [[0.03632616996765137]], [[0.05978843569755554]], [[-0.056566812098026276]], [[-0.0462816059589386]], [[0.04069150239229202]], [[0.028535963967442513]], [[0.041023869067430496]], [[0.00744257215410471]]], [[[-0.1305798590183258]], [[-0.1492866575717926]], [[-0.001572545268572867]], [[-0.11707985401153564]], [[0.12457945197820663]], [[-0.22557348012924194]], [[0.14421197772026062]], [[-0.15230470895767212]], [[0.09528438746929169]], [[0.13692571222782135]], [[-0.040314286947250366]], [[0.12922313809394836]], [[0.04552476853132248]], [[0.04943140596151352]], [[0.0899716317653656]], [[-0.02325088158249855]]], [[[0.15904255211353302]], [[-0.03237912058830261]], [[0.004685111343860626]], [[-0.04849552363157272]], [[0.09697381407022476]], [[0.005986902397125959]], [[0.048930682241916656]], [[0.08485732227563858]], [[-0.1850900501012802]], [[-0.027066100388765335]], [[0.008868604898452759]], [[-0.01352844201028347]], [[-0.016091158613562584]], [[-0.14993616938591003]], [[-0.012179700657725334]], [[0.20287643373012543]]], [[[0.0011696376604959369]], [[0.010843652300536633]], [[-0.0418371856212616]], [[0.06002528592944145]], [[0.04392760619521141]], [[-0.11904579401016235]], [[0.06400144100189209]], [[-0.06820308417081833]], [[0.06347066164016724]], [[0.007863335311412811]], [[-0.11265084147453308]], [[-0.003284102538600564]], [[0.023758629336953163]], [[0.0679267942905426]], [[0.06920035183429718]], [[0.04295511916279793]]], [[[0.01789279282093048]], [[0.016624677926301956]], [[-0.004199206363409758]], [[0.02502400241792202]], [[-0.06715872883796692]], [[0.02199392020702362]], [[-0.001133981510065496]], [[-0.010462469421327114]], [[-0.03325970843434334]], [[0.019386136904358864]], [[-0.011916221119463444]], [[0.06064435467123985]], [[-0.03776206821203232]], [[0.01760554313659668]], [[0.04409801587462425]], [[-0.02251366339623928]]], [[[0.07650082558393478]], [[-0.106509730219841]], [[-0.11089256405830383]], [[0.016572900116443634]], [[-0.04698406532406807]], [[0.040747758001089096]], [[0.0858912542462349]], [[-0.1292525827884674]], [[0.13521705567836761]], [[0.0765882059931755]], [[0.033363308757543564]], [[-0.062087614089250565]], [[-0.028071332722902298]], [[0.04285324737429619]], [[-0.058693479746580124]], [[0.012806111946702003]]], [[[0.04558410495519638]], [[-0.034927356988191605]], [[0.010919949039816856]], [[-0.0007254899828694761]], [[0.08942119777202606]], [[-0.05692761391401291]], [[-0.07803358137607574]], [[0.052421920001506805]], [[-0.030956795439124107]], [[-0.01170324720442295]], [[0.038786932826042175]], [[0.00435721967369318]], [[-0.0348081961274147]], [[0.009907668456435204]], [[-0.05990026891231537]], [[-0.01471582893282175]]], [[[0.027616119012236595]], [[-0.0696929469704628]], [[-0.05345620587468147]], [[-0.00697933416813612]], [[-0.08551919460296631]], [[-0.014809412881731987]], [[-0.004528632387518883]], [[-0.024371320381760597]], [[-0.12298744916915894]], [[0.003989586140960455]], [[-0.09956032782793045]], [[0.18353265523910522]], [[0.03633224964141846]], [[-0.05803262069821358]], [[0.05380639806389809]], [[0.0935690775513649]]], [[[0.06327664852142334]], [[0.06146666407585144]], [[-0.016431139782071114]], [[0.04315526783466339]], [[0.015223070979118347]], [[0.09250456094741821]], [[-0.0032504918053746223]], [[0.12096082419157028]], [[0.10668520629405975]], [[-0.12926281988620758]], [[0.008616655133664608]], [[0.03216002508997917]], [[0.13106615841388702]], [[0.126067653298378]], [[-0.02227606624364853]], [[-0.02820914052426815]]], [[[0.12176476418972015]], [[-0.0884045660495758]], [[-0.05654802918434143]], [[-0.06558531522750854]], [[0.17721572518348694]], [[-0.12599697709083557]], [[0.19096747040748596]], [[-0.06904712319374084]], [[-0.1354018598794937]], [[0.05317607522010803]], [[-0.010146570391952991]], [[0.003150981618091464]], [[-0.013941379263997078]], [[-0.03946889564394951]], [[0.004764416255056858]], [[0.14249134063720703]]], [[[0.0713300034403801]], [[-0.1788550168275833]], [[0.008535347878932953]], [[-0.19677571952342987]], [[0.06844727694988251]], [[-0.0398859977722168]], [[0.009892434813082218]], [[0.02591368928551674]], [[-0.02281358651816845]], [[0.050101105123758316]], [[0.022599056363105774]], [[0.0019907099194824696]], [[0.06442861258983612]], [[0.013134694658219814]], [[0.004203426651656628]], [[0.12839262187480927]]], [[[0.03774993494153023]], [[0.01088126190006733]], [[0.08520035445690155]], [[0.054994214326143265]], [[-0.044815562665462494]], [[0.012085536494851112]], [[-0.08239952474832535]], [[0.10492049157619476]], [[-0.02443910576403141]], [[0.01425143238157034]], [[0.10448218882083893]], [[-0.05179718881845474]], [[0.018207060173153877]], [[-0.03500472754240036]], [[-0.050508566200733185]], [[-0.059549808502197266]]], [[[0.0012217082548886538]], [[0.06676190346479416]], [[0.12545637786388397]], [[-0.01876368746161461]], [[-0.04757917672395706]], [[0.19221536815166473]], [[-0.01824992336332798]], [[0.00970032624900341]], [[-0.01978941634297371]], [[0.008057956583797932]], [[-0.12176821380853653]], [[0.03440028056502342]], [[-0.0041136047802865505]], [[-0.057328660041093826]], [[-0.025041120126843452]], [[-0.005243546795099974]]], [[[0.00726945698261261]], [[-0.09936654567718506]], [[0.04646142199635506]], [[-0.04651222750544548]], [[-0.018282918259501457]], [[-0.1417711228132248]], [[0.12939335405826569]], [[-0.024011313915252686]], [[-0.04926319047808647]], [[0.0782339945435524]], [[-0.01190225686877966]], [[0.05112624540925026]], [[-0.05448447912931442]], [[0.01364932581782341]], [[0.11176864802837372]], [[0.02246435172855854]]], [[[-0.09746244549751282]], [[0.06272661685943604]], [[-0.06413251161575317]], [[-0.028396788984537125]], [[0.02692412957549095]], [[-0.10544437915086746]], [[-0.034522898495197296]], [[-0.08372187614440918]], [[0.03509121015667915]], [[-0.16253677010536194]], [[0.08299539983272552]], [[-0.04518793150782585]], [[0.07071046531200409]], [[-0.04914955422282219]], [[-0.15099158883094788]], [[-0.09952764213085175]]], [[[0.009346095845103264]], [[-0.004054988734424114]], [[0.004588599782437086]], [[0.016321048140525818]], [[-0.0014772826107218862]], [[-0.007219674531370401]], [[0.028416939079761505]], [[-0.014361245557665825]], [[0.0001390942488797009]], [[0.013772337697446346]], [[0.005360320210456848]], [[-0.009690763428807259]], [[-0.023303797468543053]], [[0.011987891048192978]], [[0.02771027572453022]], [[0.002562001347541809]]], [[[-0.020153161138296127]], [[-0.025834104046225548]], [[0.021389853209257126]], [[0.0524260513484478]], [[-0.06326935440301895]], [[0.08661484718322754]], [[0.004473279230296612]], [[0.10351796448230743]], [[0.04546411335468292]], [[-0.015509852208197117]], [[-0.16591116786003113]], [[0.08660123497247696]], [[0.07069309055805206]], [[0.013042598962783813]], [[0.0845162570476532]], [[-0.16936524212360382]]], [[[0.05999316647648811]], [[0.008448879234492779]], [[0.08522743731737137]], [[0.05053627863526344]], [[-0.003732632612809539]], [[-0.001365627977065742]], [[-0.05875924229621887]], [[0.041582413017749786]], [[-0.06624740362167358]], [[0.0033272490836679935]], [[0.06266803294420242]], [[-0.0588361956179142]], [[-0.008735593408346176]], [[-0.01871531270444393]], [[-0.05615099519491196]], [[-0.01414827723056078]]], [[[0.007500403095036745]], [[-0.05370284616947174]], [[-0.020959461107850075]], [[-0.07792877405881882]], [[0.02756967395544052]], [[-0.00937824696302414]], [[-0.025979286059737206]], [[0.02987350896000862]], [[-0.0008764416561461985]], [[0.05653269216418266]], [[0.013240203261375427]], [[-0.022312873974442482]], [[-0.017136389389634132]], [[-0.030977139249444008]], [[0.060056257992982864]], [[-0.0034163640812039375]]], [[[0.020170055329799652]], [[-0.04217875003814697]], [[0.029087956994771957]], [[0.005654444918036461]], [[-0.0007049765554256737]], [[0.02608724683523178]], [[-0.022051619365811348]], [[-0.06910934299230576]], [[0.030096355825662613]], [[-0.0746866837143898]], [[-0.018050510436296463]], [[0.0014826168771833181]], [[0.07918702065944672]], [[-0.027332760393619537]], [[-0.02384083718061447]], [[-0.006426317151635885]]], [[[-0.014161725528538227]], [[-0.014584227465093136]], [[-0.06818514317274094]], [[0.034566424787044525]], [[-0.027940791100263596]], [[0.06188913807272911]], [[-0.007761341519653797]], [[-0.0772538036108017]], [[0.01689734123647213]], [[0.06780357658863068]], [[-0.0868263691663742]], [[0.028161128982901573]], [[0.02389359287917614]], [[0.13323210179805756]], [[0.06070414558053017]], [[0.05995764583349228]]], [[[0.025291506201028824]], [[0.0021167530212551355]], [[0.09048324823379517]], [[0.07747447490692139]], [[-0.04196206107735634]], [[-0.07686007022857666]], [[-0.010191193781793118]], [[-0.16832150518894196]], [[-0.04434679076075554]], [[0.0050740353763103485]], [[-0.020831672474741936]], [[0.10999743640422821]], [[0.06669330596923828]], [[0.11735207587480545]], [[0.00308378878980875]], [[-0.05054200813174248]]], [[[0.030511371791362762]], [[0.013612274080514908]], [[-0.20528672635555267]], [[-0.0009571645641699433]], [[0.029569478705525398]], [[-0.04939927160739899]], [[-0.05579473450779915]], [[-0.15152762830257416]], [[0.030480358749628067]], [[0.03962601721286774]], [[-0.05063989385962486]], [[0.07808627933263779]], [[0.06723742932081223]], [[-0.052788037806749344]], [[0.08015419542789459]], [[0.022837292402982712]]], [[[-0.04022825509309769]], [[0.04943516105413437]], [[0.06882276386022568]], [[-0.0179052222520113]], [[-0.07802019268274307]], [[-0.032663553953170776]], [[-0.007489415816962719]], [[-0.11826551705598831]], [[0.06569904088973999]], [[-0.019326437264680862]], [[0.0348249152302742]], [[-0.06701800972223282]], [[0.028705567121505737]], [[-0.1370696872472763]], [[0.02656332589685917]], [[0.03377927467226982]]], [[[-0.07312130928039551]], [[-0.06089465320110321]], [[0.030377976596355438]], [[-0.055725567042827606]], [[-0.0391104556620121]], [[0.001487403060309589]], [[0.05725802108645439]], [[0.03613003343343735]], [[0.02840440720319748]], [[0.020087270066142082]], [[0.0730016753077507]], [[0.01129524502903223]], [[0.010820909403264523]], [[0.016901858150959015]], [[-0.02093903161585331]], [[-0.05453849211335182]]], [[[-0.11606700718402863]], [[0.0018065128242596984]], [[0.020748697221279144]], [[-0.029363028705120087]], [[0.07197903841733932]], [[0.023017367348074913]], [[-0.07300359755754471]], [[0.1264982968568802]], [[-0.0425671823322773]], [[0.006030611228197813]], [[-0.03551982343196869]], [[0.0503409206867218]], [[0.019567295908927917]], [[-0.004472843836992979]], [[0.12604647874832153]], [[-0.014663176611065865]]], [[[-0.007928712293505669]], [[0.002499345224350691]], [[-0.14185458421707153]], [[0.03420644626021385]], [[0.01047449093312025]], [[0.22397290170192719]], [[-0.006601670756936073]], [[0.030452849343419075]], [[0.08621976524591446]], [[-0.032506395131349564]], [[-0.12400808185338974]], [[0.03816543519496918]], [[-0.03641243278980255]], [[0.010380065068602562]], [[0.03075973130762577]], [[-0.03309145197272301]]], [[[-0.012833935208618641]], [[0.12365925312042236]], [[-0.1179080456495285]], [[-0.05378349870443344]], [[0.07757475972175598]], [[0.11752160638570786]], [[-0.030214155092835426]], [[0.019377050921320915]], [[0.0768115445971489]], [[-0.01789126731455326]], [[0.12290488928556442]], [[-0.11572163552045822]], [[-0.061690595000982285]], [[-0.01524032186716795]], [[-0.11595945060253143]], [[0.022775357589125633]]], [[[0.059059541672468185]], [[-0.15820951759815216]], [[-0.03853901848196983]], [[-0.01373171154409647]], [[0.01441690418869257]], [[0.10373092442750931]], [[0.005148703698068857]], [[0.021464351564645767]], [[-0.056119803339242935]], [[0.11543992161750793]], [[-0.013429215177893639]], [[0.015818694606423378]], [[0.06728080660104752]], [[0.06293392926454544]], [[0.10552379488945007]], [[-0.06820783764123917]]], [[[0.016938941553235054]], [[0.06784780323505402]], [[-0.10979543626308441]], [[0.06047489866614342]], [[-0.0210037250071764]], [[-0.1489008218050003]], [[-0.12362278997898102]], [[-0.02167106606066227]], [[0.056236762553453445]], [[-0.0073501649312675]], [[0.03423179313540459]], [[-0.07728805392980576]], [[0.046115145087242126]], [[0.035999614745378494]], [[-0.08608617633581161]], [[0.024220915511250496]]], [[[-0.049722954630851746]], [[-0.016042226925492287]], [[0.014874381944537163]], [[-0.04722360521554947]], [[0.019809510558843613]], [[-0.26140621304512024]], [[-0.0010051596909761429]], [[-0.25505930185317993]], [[0.008930422365665436]], [[0.06684551388025284]], [[0.15455162525177002]], [[0.030825011432170868]], [[0.04232092946767807]], [[0.049805693328380585]], [[0.0316951647400856]], [[0.08189380913972855]]], [[[0.0529397688806057]], [[0.08732409030199051]], [[-0.0018158237216994166]], [[0.09419870376586914]], [[-0.17111986875534058]], [[0.00667346129193902]], [[-0.007639757357537746]], [[0.000728740356862545]], [[-0.0047081634402275085]], [[-0.14665019512176514]], [[0.06274064630270004]], [[0.08315286040306091]], [[0.1222790777683258]], [[0.00658675329759717]], [[-0.06888655573129654]], [[-0.2274358570575714]]], [[[-0.006234683562070131]], [[0.00400686077773571]], [[0.021911194548010826]], [[0.013972879387438297]], [[-0.0004923173110000789]], [[-0.0023525473661720753]], [[-0.002623332431539893]], [[-0.0011248530354350805]], [[0.020817823708057404]], [[0.0002205576456617564]], [[0.009213754907250404]], [[-0.03826528415083885]], [[-0.0239479411393404]], [[-0.0028526808600872755]], [[-0.0028990362770855427]], [[-0.023815296590328217]]], [[[0.0985778421163559]], [[0.07814472168684006]], [[-0.04476471617817879]], [[-0.03340119123458862]], [[-0.04607396200299263]], [[0.09860766679048538]], [[-0.048638924956321716]], [[0.052897267043590546]], [[0.04063253104686737]], [[-0.11166126281023026]], [[0.11046015471220016]], [[-0.04696721211075783]], [[-0.02302081696689129]], [[-0.05612291768193245]], [[-0.08903440088033676]], [[-0.03283802047371864]]], [[[-0.2343885451555252]], [[0.09865012019872665]], [[-0.12192193418741226]], [[-0.001630693906918168]], [[-0.012959156185388565]], [[-0.006551944185048342]], [[0.15306200087070465]], [[-0.07020442932844162]], [[0.2539541721343994]], [[0.11897649616003036]], [[-0.14791738986968994]], [[0.12640950083732605]], [[0.01108609326183796]], [[0.25667300820350647]], [[-0.008660262450575829]], [[-0.10800119489431381]]], [[[-0.019239557906985283]], [[-0.007293572649359703]], [[0.03582672402262688]], [[-0.09265361726284027]], [[-0.0421941913664341]], [[0.0895887166261673]], [[0.0025848960503935814]], [[0.027586789801716805]], [[-0.09260156005620956]], [[-0.027996670454740524]], [[0.020854419097304344]], [[0.05825129151344299]], [[0.11880306154489517]], [[-0.03733896464109421]], [[-0.03435560315847397]], [[0.1348116099834442]]], [[[0.01709940657019615]], [[-0.007185287307947874]], [[-0.006244990974664688]], [[0.03050234168767929]], [[0.006320209242403507]], [[-0.018966129049658775]], [[-0.10041416436433792]], [[-0.03247609734535217]], [[-0.0022935664746910334]], [[-0.08240561187267303]], [[0.007077016402035952]], [[0.019757157191634178]], [[0.09914398193359375]], [[-0.030433187261223793]], [[0.049768730998039246]], [[-0.03456276282668114]]], [[[0.01522105187177658]], [[-0.11294213682413101]], [[0.14806905388832092]], [[-0.012015062384307384]], [[-0.0002600257284939289]], [[0.04058066010475159]], [[0.026371527463197708]], [[-0.040334220975637436]], [[0.051946017891168594]], [[0.12393789738416672]], [[-0.05092321336269379]], [[-0.10171113908290863]], [[0.0073554194532334805]], [[-0.09124619513750076]], [[0.07047567516565323]], [[0.014360564760863781]]], [[[0.0019753340166062117]], [[0.0030928836204111576]], [[0.023400381207466125]], [[-0.005971853621304035]], [[-0.025568367913365364]], [[0.010237236507236958]], [[-0.00024402821145486087]], [[0.014461255632340908]], [[-0.0582226887345314]], [[0.02302844636142254]], [[-0.02280757576227188]], [[0.016404785215854645]], [[-0.03699574992060661]], [[0.027647923678159714]], [[0.008763862773776054]], [[0.0435466431081295]]], [[[0.15118472278118134]], [[-0.03867306187748909]], [[-0.061969559639692307]], [[-0.06085056811571121]], [[0.023298971354961395]], [[-0.15865333378314972]], [[-0.1584239900112152]], [[-0.0016825193306431174]], [[-0.16780494153499603]], [[0.05913729593157768]], [[-0.0023638776037842035]], [[0.09159518778324127]], [[0.16594330966472626]], [[-0.1828632652759552]], [[0.18826189637184143]], [[0.19652850925922394]]], [[[-0.1916646957397461]], [[-0.022897137328982353]], [[0.1124839186668396]], [[-0.08085861802101135]], [[0.05799953639507294]], [[0.03597673773765564]], [[0.012051980942487717]], [[-0.061402712017297745]], [[0.08502248674631119]], [[0.03804415464401245]], [[0.06417466700077057]], [[-0.04494166374206543]], [[0.03704334795475006]], [[-0.04892395809292793]], [[0.1230316236615181]], [[-0.027255535125732422]]], [[[0.06481852382421494]], [[0.050290483981370926]], [[0.11319991201162338]], [[0.0627744197845459]], [[0.06488246470689774]], [[0.12072411179542542]], [[-0.09912646561861038]], [[0.04351019486784935]], [[-0.07873158156871796]], [[-0.08212579786777496]], [[0.051380354911088943]], [[-0.12235593050718307]], [[-0.023646293208003044]], [[-0.04525767266750336]], [[-0.10390182584524155]], [[0.05679751932621002]]], [[[0.05149587243795395]], [[0.20174731314182281]], [[-0.13549946248531342]], [[0.10143046826124191]], [[-0.030606061220169067]], [[-0.0039024592842906713]], [[-0.0962454229593277]], [[0.085578054189682]], [[-0.045678649097681046]], [[-0.14934934675693512]], [[0.0884021744132042]], [[-0.14937126636505127]], [[0.034664202481508255]], [[-0.025345802307128906]], [[-0.17166106402873993]], [[0.083450548350811]]], [[[0.02671688422560692]], [[-0.008869844488799572]], [[-0.004914737772196531]], [[-0.006398699712008238]], [[0.055792104452848434]], [[-0.022519348189234734]], [[0.0557183176279068]], [[0.016160935163497925]], [[-0.028765827417373657]], [[0.030058518052101135]], [[0.007597262971103191]], [[-0.02155608870089054]], [[-0.02839376963675022]], [[-0.017551245167851448]], [[0.041745252907276154]], [[0.03913355618715286]]], [[[-0.040576476603746414]], [[0.10937006026506424]], [[0.07335174083709717]], [[-0.01810644567012787]], [[-0.04526691511273384]], [[-0.024260740727186203]], [[-0.07594660669565201]], [[0.07231287658214569]], [[0.09229491651058197]], [[-0.1080087423324585]], [[0.057212524116039276]], [[-0.006589704193174839]], [[0.057801030576229095]], [[-0.04993636533617973]], [[-0.012978444807231426]], [[-0.03500240296125412]]], [[[-0.07730180025100708]], [[-0.07063210755586624]], [[0.08566123247146606]], [[-0.07154615968465805]], [[-0.05943552404642105]], [[0.08499065041542053]], [[0.08454672247171402]], [[-0.013276179321110249]], [[0.05953172966837883]], [[0.026196314021945]], [[0.08996174484491348]], [[0.020450053736567497]], [[-0.016032058745622635]], [[-0.0089997174218297]], [[0.06998483091592789]], [[-0.07957988977432251]]], [[[0.027759073302149773]], [[-0.07720883190631866]], [[0.06539853662252426]], [[-0.06032504513859749]], [[-0.016295434907078743]], [[0.03327782079577446]], [[0.02864724211394787]], [[-0.039349716156721115]], [[0.04546042159199715]], [[-0.01847212016582489]], [[0.050541218370199203]], [[0.04969390109181404]], [[0.02532082609832287]], [[-0.06465277075767517]], [[-0.05443425849080086]], [[-0.022237522527575493]]], [[[0.045044805854558945]], [[-0.06245313212275505]], [[-0.1382049173116684]], [[0.034255724400281906]], [[-0.016606716439127922]], [[-0.00155507936142385]], [[0.021643860265612602]], [[-0.021533049643039703]], [[-0.004442028701305389]], [[-0.02375197224318981]], [[-0.0538412444293499]], [[0.03515412285923958]], [[0.00655624084174633]], [[-0.03613715246319771]], [[0.0471494160592556]], [[-0.04065325856208801]]], [[[0.0958162248134613]], [[0.030062517151236534]], [[-0.07220693677663803]], [[0.06135394051671028]], [[-0.012227106839418411]], [[0.029856782406568527]], [[0.005643073935061693]], [[0.017918067052960396]], [[0.04309714585542679]], [[0.005724524147808552]], [[-0.010939677245914936]], [[-0.03653113171458244]], [[-0.024572283029556274]], [[-0.00883015338331461]], [[-0.015405107289552689]], [[-0.003063886659219861]]], [[[0.022099148482084274]], [[0.03458333760499954]], [[-0.10707728564739227]], [[-0.03445355221629143]], [[-0.0013823918998241425]], [[0.016792379319667816]], [[-0.020505733788013458]], [[0.02167583629488945]], [[0.09153006225824356]], [[0.19074103236198425]], [[0.03388034552335739]], [[0.09528005123138428]], [[-0.03296895697712898]], [[-0.046013861894607544]], [[0.007123463787138462]], [[-0.01119859516620636]]], [[[-0.05656488612294197]], [[0.04102649912238121]], [[0.11719464510679245]], [[0.01764323189854622]], [[-0.013818595558404922]], [[0.09742702543735504]], [[-0.0157431922852993]], [[0.08578809350728989]], [[-0.02910260669887066]], [[-0.0036419625394046307]], [[0.013186686672270298]], [[-0.016694067046046257]], [[0.04843423143029213]], [[-0.017365586012601852]], [[-0.001741719665005803]], [[0.047559913247823715]]], [[[0.010498878546059132]], [[0.058072689920663834]], [[-0.009519456885755062]], [[0.07496070116758347]], [[0.12180131673812866]], [[0.04415703937411308]], [[-0.024063600227236748]], [[-0.015183806419372559]], [[-0.044685229659080505]], [[0.03375069424510002]], [[-0.04257257282733917]], [[-0.06427943706512451]], [[0.07239798456430435]], [[0.03559783846139908]], [[-0.08872460573911667]], [[0.02600325085222721]]], [[[-0.029062289744615555]], [[0.03912407532334328]], [[-0.027968959882855415]], [[-0.028144873678684235]], [[0.05068276822566986]], [[0.0718698725104332]], [[-0.023174503818154335]], [[0.00023832928854972124]], [[-0.1041666716337204]], [[-0.040796536952257156]], [[-0.036806512624025345]], [[0.04847264662384987]], [[0.023311849683523178]], [[0.008206785656511784]], [[-0.030428608879446983]], [[0.04101558029651642]]], [[[-0.1454685479402542]], [[0.04463060200214386]], [[-0.1006542518734932]], [[-0.040380027145147324]], [[-0.1277114450931549]], [[0.03114270605146885]], [[-0.017959285527467728]], [[0.02514839731156826]], [[-0.021211668848991394]], [[0.010839282535016537]], [[-0.026762837544083595]], [[0.03135198727250099]], [[-0.11949373036623001]], [[-0.06049245223402977]], [[-0.10614048689603806]], [[-0.006116998847573996]]], [[[0.0660356879234314]], [[-0.06663333624601364]], [[-0.020140983164310455]], [[0.05769709125161171]], [[-0.0940055102109909]], [[-0.006142065394669771]], [[-0.06346511840820312]], [[-0.003777686506509781]], [[-0.012156929820775986]], [[0.07704869657754898]], [[0.010463192127645016]], [[0.005069887265563011]], [[0.025479137897491455]], [[0.0755939930677414]], [[0.019645551219582558]], [[-0.014283711090683937]]], [[[-0.03890340030193329]], [[0.016042081639170647]], [[-0.05354919657111168]], [[0.02767154574394226]], [[0.017541807144880295]], [[0.007445253897458315]], [[-0.03995678946375847]], [[-0.00800689123570919]], [[0.004621803294867277]], [[-0.007220723666250706]], [[0.005638218950480223]], [[0.05001188442111015]], [[0.03633839637041092]], [[0.0025740230921655893]], [[0.013569679111242294]], [[-0.009903744794428349]]], [[[0.014331375248730183]], [[0.013632544316351414]], [[-0.0018153542187064886]], [[0.022599786520004272]], [[-0.002114919712767005]], [[0.008890471421182156]], [[0.01050327718257904]], [[0.004156771115958691]], [[-0.005282609257847071]], [[-0.0037502727936953306]], [[0.004973266273736954]], [[-0.006210212130099535]], [[-0.007245470304042101]], [[0.005536054726690054]], [[-0.0006028541829437017]], [[0.025546830147504807]]], [[[-0.0432259701192379]], [[0.01065608486533165]], [[0.10669060796499252]], [[0.06010645627975464]], [[-0.06465423107147217]], [[0.06273210048675537]], [[-0.026858050376176834]], [[-0.06175336614251137]], [[0.010880865156650543]], [[0.07536288350820541]], [[0.023061789572238922]], [[-0.08539602160453796]], [[-0.146103173494339]], [[-0.006249059457331896]], [[0.07162507623434067]], [[0.0017172746593132615]]], [[[0.05971742793917656]], [[-0.10318699479103088]], [[-0.09924183040857315]], [[0.0011266941437497735]], [[-0.03419903293251991]], [[0.10842607915401459]], [[0.03542808070778847]], [[0.08609519898891449]], [[-0.06782542914152145]], [[0.07916674762964249]], [[-0.07871945947408676]], [[0.04162638634443283]], [[0.04336608573794365]], [[0.00272089010104537]], [[0.036638546735048294]], [[-0.03610902279615402]]], [[[0.017573261633515358]], [[0.027866018936038017]], [[0.05233032628893852]], [[-0.06000673025846481]], [[-0.02246306650340557]], [[0.01096739899367094]], [[0.055816084146499634]], [[0.006199587602168322]], [[0.03964770957827568]], [[-0.05146747827529907]], [[-0.002241968410089612]], [[0.015168832615017891]], [[0.0498821847140789]], [[-0.04766634851694107]], [[-0.0638895332813263]], [[0.06706420332193375]]], [[[-0.03385729342699051]], [[0.043716318905353546]], [[0.12671127915382385]], [[0.008870640769600868]], [[-0.02984151802957058]], [[-0.12861761450767517]], [[-0.0026815671008080244]], [[-0.052483417093753815]], [[-0.011431790888309479]], [[-0.009707494638860226]], [[0.14856719970703125]], [[-0.01901436597108841]], [[-0.007334920112043619]], [[0.0016561151714995503]], [[-0.018847370520234108]], [[0.03296620026230812]]], [[[-0.09517278522253036]], [[-0.033252812922000885]], [[-0.02392193302512169]], [[-0.02587280422449112]], [[0.061269134283065796]], [[-0.16647885739803314]], [[0.07633492350578308]], [[-0.13005119562149048]], [[0.05657997727394104]], [[0.01683470606803894]], [[-0.07303084433078766]], [[0.09168040007352829]], [[0.012064287438988686]], [[0.06068217754364014]], [[0.01767651177942753]], [[0.04071683809161186]]], [[[0.025098158046603203]], [[-0.03517230972647667]], [[-0.005729025229811668]], [[-0.018377359956502914]], [[0.01054476574063301]], [[0.002403578022494912]], [[0.023347854614257812]], [[0.013418775983154774]], [[-0.0545208603143692]], [[0.013797204941511154]], [[-0.00111932132858783]], [[0.01807083934545517]], [[-0.0015990472165867686]], [[-0.023310499265789986]], [[0.016960425302386284]], [[0.037892699241638184]]], [[[-0.07140941917896271]], [[0.10762770473957062]], [[0.004593600053340197]], [[0.03305487334728241]], [[-0.02951827459037304]], [[0.0333288349211216]], [[-0.05764136463403702]], [[-0.03231317177414894]], [[0.17583228647708893]], [[0.0671142116189003]], [[-0.035744182765483856]], [[0.06770366430282593]], [[-0.01764889992773533]], [[0.028892869129776955]], [[0.050954416394233704]], [[-0.021183248609304428]]], [[[-0.0567614771425724]], [[0.014919075183570385]], [[-0.16474011540412903]], [[-0.0380471870303154]], [[-0.03362208977341652]], [[-0.03040950559079647]], [[0.020238937810063362]], [[-0.1465548425912857]], [[0.059421051293611526]], [[0.1317610889673233]], [[-0.1404358297586441]], [[0.14759598672389984]], [[0.10901866853237152]], [[0.020948266610503197]], [[0.09873079508543015]], [[-0.05680963024497032]]], [[[0.015123586170375347]], [[0.01756981387734413]], [[-0.12907972931861877]], [[0.03943375498056412]], [[0.07882124930620193]], [[0.08678410202264786]], [[-0.026074334979057312]], [[0.09575312584638596]], [[-0.009978308342397213]], [[0.038995061069726944]], [[-0.1136053130030632]], [[0.09488280117511749]], [[-0.03591551631689072]], [[0.026257457211613655]], [[-0.01479282695800066]], [[0.043176744133234024]]], [[[0.01392548717558384]], [[-0.023776495829224586]], [[-0.01572440192103386]], [[0.0679098591208458]], [[-0.09164731204509735]], [[-0.007415048312395811]], [[0.02440630830824375]], [[0.02556931972503662]], [[-0.10845573991537094]], [[0.06851546466350555]], [[-0.07407382875680923]], [[0.07889232784509659]], [[-0.091339610517025]], [[-0.0037961003836244345]], [[0.09383373707532883]], [[0.03499002382159233]]], [[[0.05549197643995285]], [[0.1066783219575882]], [[0.01757461205124855]], [[0.02196480706334114]], [[0.07484980672597885]], [[-0.025937890633940697]], [[-0.14732873439788818]], [[-0.018792811781167984]], [[0.04221002012491226]], [[-0.07659345865249634]], [[0.06972616165876389]], [[-0.1524539589881897]], [[0.05603873357176781]], [[0.023429537191987038]], [[-0.09795960783958435]], [[0.031362760812044144]]], [[[-0.008178739808499813]], [[-0.03151556849479675]], [[-0.009202081710100174]], [[-0.019452285021543503]], [[-0.017069155350327492]], [[0.03645508363842964]], [[0.025601321831345558]], [[0.013006738387048244]], [[-0.009550103917717934]], [[0.008812075480818748]], [[-0.013095924630761147]], [[0.020328735932707787]], [[0.0012260524090379477]], [[-0.00698848208412528]], [[0.01633400283753872]], [[0.01369460579007864]]], [[[0.1185256838798523]], [[-0.007331551518291235]], [[0.11771733313798904]], [[0.05529345944523811]], [[-0.14230521023273468]], [[0.16893719136714935]], [[0.0036075226962566376]], [[0.12493902444839478]], [[-0.2071240246295929]], [[-0.04785590246319771]], [[0.03164702281355858]], [[0.007956499233841896]], [[-0.07503658533096313]], [[-0.06861741840839386]], [[0.04499838128685951]], [[-0.009562909603118896]]], [[[-0.03624740242958069]], [[0.046083468943834305]], [[0.03406623378396034]], [[-0.028524979948997498]], [[-0.03446401655673981]], [[0.035077814012765884]], [[0.016361679881811142]], [[0.04307212680578232]], [[0.017694247886538506]], [[-0.00025204240228049457]], [[0.0782676488161087]], [[-0.17068693041801453]], [[0.008711022324860096]], [[0.09121201187372208]], [[-0.015048762783408165]], [[-0.05678307265043259]]], [[[0.011699872091412544]], [[-0.007274549920111895]], [[0.07616638392210007]], [[-0.01939798705279827]], [[-0.051238611340522766]], [[0.040701426565647125]], [[0.03129858151078224]], [[0.052665453404188156]], [[-0.0071504744701087475]], [[-0.021980002522468567]], [[-0.03401568531990051]], [[0.006352728232741356]], [[0.030893664807081223]], [[-0.05018944293260574]], [[0.05144388601183891]], [[-0.05498014762997627]]], [[[-0.016590874642133713]], [[-0.013652444817125797]], [[0.023059433326125145]], [[0.013033374212682247]], [[-0.013627780601382256]], [[0.006338622886687517]], [[0.05730568990111351]], [[0.0004308444040361792]], [[0.008432743139564991]], [[-0.04309350252151489]], [[-0.009198692627251148]], [[-0.023898085579276085]], [[0.05040329322218895]], [[0.04249748960137367]], [[0.006940297782421112]], [[-0.02883206680417061]]], [[[0.06636764109134674]], [[0.04756565019488335]], [[-0.042937178164720535]], [[0.1207512766122818]], [[-0.11060681939125061]], [[0.07853840291500092]], [[-0.07896674424409866]], [[0.0858478844165802]], [[-0.11984670162200928]], [[-0.13354511559009552]], [[0.015103048644959927]], [[-0.07291808724403381]], [[-0.04802382364869118]], [[-0.09358105063438416]], [[-0.07408449798822403]], [[-0.029806237667798996]]], [[[-0.015004719607532024]], [[0.013258677907288074]], [[-0.0028980344068259]], [[-0.007660504896193743]], [[0.0047505879774689674]], [[-0.0031941509805619717]], [[0.030539631843566895]], [[0.058056578040122986]], [[-0.008389524184167385]], [[-0.04491309076547623]], [[0.07619749009609222]], [[0.032946452498435974]], [[-0.012065417133271694]], [[-0.0050779893063008785]], [[0.005985297728329897]], [[-0.07648109644651413]]], [[[-0.008780945092439651]], [[-0.04309122636914253]], [[-0.09747946262359619]], [[0.04315568134188652]], [[0.010045235976576805]], [[0.08333504945039749]], [[-0.030002731829881668]], [[0.11844806373119354]], [[-0.05250336974859238]], [[-0.05483018979430199]], [[0.065528504550457]], [[-0.04118001088500023]], [[0.15608786046504974]], [[-0.030371733009815216]], [[-0.07424212247133255]], [[0.07013921439647675]]], [[[0.023968694731593132]], [[0.025219205766916275]], [[0.016833670437335968]], [[0.04072311520576477]], [[0.06131574884057045]], [[0.007138723507523537]], [[0.012405982241034508]], [[0.021943893283605576]], [[-0.03063312917947769]], [[-0.06537487357854843]], [[0.08403321355581284]], [[-0.0638561099767685]], [[0.006610887590795755]], [[0.03156347572803497]], [[-0.045834727585315704]], [[0.026296213269233704]]], [[[0.12475766986608505]], [[-0.08251672238111496]], [[0.033925075083971024]], [[-0.013875985518097878]], [[-0.00385309592820704]], [[0.09994474053382874]], [[-0.059486404061317444]], [[0.1233782023191452]], [[-0.10361838340759277]], [[0.013946641236543655]], [[-0.03827976435422897]], [[-0.1469246745109558]], [[-0.013388555496931076]], [[-0.13864251971244812]], [[0.0818612352013588]], [[0.0035027130506932735]]], [[[0.07083415985107422]], [[0.11103051155805588]], [[-0.0915013998746872]], [[0.052681345492601395]], [[0.12746869027614594]], [[0.08490578085184097]], [[-0.1500304639339447]], [[0.02501339465379715]], [[-0.00131423759739846]], [[-0.18193268775939941]], [[0.11145006120204926]], [[-0.10190673917531967]], [[0.17583124339580536]], [[-0.10581985116004944]], [[-0.2707845866680145]], [[0.0060307919047772884]]], [[[-0.006053845398128033]], [[0.08261273056268692]], [[0.011451458558440208]], [[0.03111199662089348]], [[0.019346095621585846]], [[-0.07276339083909988]], [[-0.00888078287243843]], [[-0.10668785125017166]], [[-0.090363048017025]], [[-0.02203778177499771]], [[0.06699006259441376]], [[0.008986088447272778]], [[0.02922983095049858]], [[-0.03991343453526497]], [[0.01903539150953293]], [[0.09806934744119644]]], [[[0.059177350252866745]], [[-0.06094904989004135]], [[0.012356801889836788]], [[-0.12078583240509033]], [[0.01111006923019886]], [[0.01630862057209015]], [[0.019804472103714943]], [[0.02168472483754158]], [[-0.045278336852788925]], [[-0.06282631307840347]], [[-0.06251497566699982]], [[-0.01092621125280857]], [[0.03801383078098297]], [[-0.022205447778105736]], [[0.03156944736838341]], [[0.15339654684066772]]], [[[-0.08476095646619797]], [[-0.031215839087963104]], [[0.041365381330251694]], [[-0.05138260871171951]], [[-0.013726677745580673]], [[0.04525938257575035]], [[-0.07537613064050674]], [[0.11015764623880386]], [[0.10908984392881393]], [[0.0464988574385643]], [[-0.09178778529167175]], [[0.05995522812008858]], [[0.05937857925891876]], [[-0.04171644523739815]], [[0.04535869508981705]], [[-0.07842741161584854]]], [[[-0.0180828794836998]], [[-0.023010117933154106]], [[0.008115654811263084]], [[-0.0035460833460092545]], [[-0.031503625214099884]], [[-0.002469648839905858]], [[0.007742323912680149]], [[0.005667394958436489]], [[-0.017872240394353867]], [[0.00666953157633543]], [[-0.0016880163457244635]], [[0.04944293573498726]], [[-0.020114701241254807]], [[0.005887588020414114]], [[0.03802935406565666]], [[-0.022588156163692474]]], [[[0.016250206157565117]], [[0.07574846595525742]], [[-0.022365406155586243]], [[-0.02040683664381504]], [[0.04412218555808067]], [[0.11434102803468704]], [[-0.0454372875392437]], [[0.05733137205243111]], [[-0.12554794549942017]], [[-0.09137162566184998]], [[0.13981592655181885]], [[-0.01571028120815754]], [[0.012112760916352272]], [[-0.021476339548826218]], [[0.007830863818526268]], [[0.010738885961472988]]], [[[-0.014370214194059372]], [[0.05188746750354767]], [[0.11956373602151871]], [[0.03851034864783287]], [[-0.035981472581624985]], [[-0.2612690329551697]], [[-0.03526631370186806]], [[-0.060012564063072205]], [[-0.03830321878194809]], [[-0.02441149577498436]], [[0.200715571641922]], [[-0.02817416377365589]], [[-0.006485417950898409]], [[-0.05702879652380943]], [[-0.028209425508975983]], [[0.03636748343706131]]], [[[0.01882203295826912]], [[0.007068986538797617]], [[0.027394553646445274]], [[-0.042342666536569595]], [[0.01937071792781353]], [[0.0030194884166121483]], [[-0.09847189486026764]], [[-0.0028169474098831415]], [[0.13955500721931458]], [[0.019666949287056923]], [[0.04224798083305359]], [[-0.06753379851579666]], [[0.01619221456348896]], [[0.035407546907663345]], [[-0.01589084416627884]], [[-0.022593935951590538]]], [[[0.0057069663889706135]], [[-0.1563326120376587]], [[0.09389406442642212]], [[-0.054333776235580444]], [[-0.06162025406956673]], [[0.028681635856628418]], [[0.1172061339020729]], [[0.02253284864127636]], [[0.09419892728328705]], [[0.1292271614074707]], [[-0.055249616503715515]], [[0.010607482865452766]], [[-0.026169104501605034]], [[-0.006585835479199886]], [[0.1858418732881546]], [[-0.06052714213728905]]], [[[-0.021302973851561546]], [[-0.07741954922676086]], [[-0.023818615823984146]], [[0.0547543428838253]], [[-0.057702209800481796]], [[-0.07328588515520096]], [[0.004779907409101725]], [[0.02767353132367134]], [[-0.06346368789672852]], [[0.19125516712665558]], [[-0.02484583668410778]], [[0.0333397313952446]], [[-0.09783554077148438]], [[-0.008497586473822594]], [[0.010678635910153389]], [[-0.0493101142346859]]], [[[-0.17290247976779938]], [[0.07811308652162552]], [[0.04392112419009209]], [[-0.10326537489891052]], [[-0.017918895930051804]], [[0.0478999949991703]], [[0.10231568664312363]], [[-0.02768300287425518]], [[0.050916414707899094]], [[0.11552245914936066]], [[0.08299710601568222]], [[-0.13611343502998352]], [[-0.027627792209386826]], [[0.0664392039179802]], [[-0.0579698346555233]], [[-0.051157765090465546]]], [[[-0.038746729493141174]], [[0.12678903341293335]], [[-0.07329830527305603]], [[0.12539607286453247]], [[0.02330571971833706]], [[-0.09020011126995087]], [[0.07585827261209488]], [[-0.04868635907769203]], [[0.06969587504863739]], [[0.018122220411896706]], [[-0.01754014566540718]], [[-0.05834681913256645]], [[-0.09079896658658981]], [[0.14709904789924622]], [[0.016456061974167824]], [[-0.13423041999340057]]], [[[-0.09882350265979767]], [[0.009224840439856052]], [[-0.04322369396686554]], [[0.0013807277427986264]], [[0.03370484337210655]], [[-0.008021724410355091]], [[-0.06574521213769913]], [[0.03320261090993881]], [[-0.0761590376496315]], [[0.03540385514497757]], [[-0.06896878778934479]], [[0.13172031939029694]], [[-0.020260704681277275]], [[-0.07329503446817398]], [[-0.008700131438672543]], [[0.047281455248594284]]], [[[0.04163581132888794]], [[-0.1311817318201065]], [[-0.052049364894628525]], [[-0.07901206612586975]], [[-0.03542906790971756]], [[-0.00400826521217823]], [[-0.041348643600940704]], [[-0.049111947417259216]], [[-0.10399804264307022]], [[-0.04562719538807869]], [[0.00635556410998106]], [[-0.15780630707740784]], [[-0.08927816152572632]], [[-0.04357219859957695]], [[-0.06734860688447952]], [[-0.007867090404033661]]], [[[0.005243169609457254]], [[0.04934842512011528]], [[0.10768689960241318]], [[0.05471855029463768]], [[0.054976481944322586]], [[-0.09041430056095123]], [[0.013419466093182564]], [[-0.06650974601507187]], [[-0.03513193503022194]], [[0.035446446388959885]], [[0.028759900480508804]], [[-0.043007742613554]], [[-0.0021723173558712006]], [[-0.013461996801197529]], [[-0.016039041802287102]], [[-0.029225366190075874]]], [[[-0.00128033640794456]], [[-0.02381560020148754]], [[0.05784573778510094]], [[-0.02334296517074108]], [[0.026976576074957848]], [[-0.04324721172451973]], [[0.00027117866557091475]], [[0.0197483841329813]], [[0.002419994445517659]], [[-0.0038572808261960745]], [[0.031695544719696045]], [[0.010315499268472195]], [[0.0011326094390824437]], [[0.018733827397227287]], [[-0.026229610666632652]], [[-0.010012870654463768]]], [[[0.04791584610939026]], [[0.04878503456711769]], [[-0.08452657610177994]], [[0.062315016984939575]], [[-0.04662402719259262]], [[0.12647929787635803]], [[-0.0011178578715771437]], [[0.12401004880666733]], [[0.03095974586904049]], [[-0.0460408553481102]], [[-0.04511609300971031]], [[-0.014871327206492424]], [[-0.001523064449429512]], [[-0.02716418169438839]], [[-0.03076936863362789]], [[-0.009032056666910648]]], [[[0.1330844610929489]], [[-0.05884810537099838]], [[0.03968018293380737]], [[0.11984953284263611]], [[-0.31843873858451843]], [[0.04537774994969368]], [[0.04550345242023468]], [[0.013918534852564335]], [[-0.10462134331464767]], [[0.04941204935312271]], [[-0.0610843151807785]], [[-0.013706320896744728]], [[-0.24504561722278595]], [[0.043178483843803406]], [[0.1363813728094101]], [[0.021706026047468185]]], [[[-0.006788346450775862]], [[0.03969729319214821]], [[-0.03512362018227577]], [[0.02376129850745201]], [[0.10758304595947266]], [[-0.004712983034551144]], [[-0.0467698760330677]], [[-0.03735288977622986]], [[0.061823923140764236]], [[0.03285195678472519]], [[-0.03090481460094452]], [[0.05229189246892929]], [[0.13821133971214294]], [[-0.09507092833518982]], [[-0.07087201625108719]], [[0.00969555415213108]]], [[[-0.0019596032798290253]], [[0.01653883419930935]], [[0.13284868001937866]], [[-0.0037897753063589334]], [[-0.007172111421823502]], [[-0.0552915520966053]], [[-0.010053997859358788]], [[-0.05106464400887489]], [[0.012036697939038277]], [[-0.02382778190076351]], [[-0.02723807655274868]], [[0.024536998942494392]], [[-0.007216291967779398]], [[-0.05796616151928902]], [[0.008693060837686062]], [[-0.0025599654763936996]]], [[[-0.03472597897052765]], [[-0.1443088799715042]], [[-0.023504076525568962]], [[-0.010055051185190678]], [[0.004717568401247263]], [[0.035371679812669754]], [[0.08302301168441772]], [[-0.04360663890838623]], [[0.040669865906238556]], [[0.04423484578728676]], [[0.04315301775932312]], [[0.030332842841744423]], [[-0.017407432198524475]], [[-0.025370849296450615]], [[-0.07851367443799973]], [[-0.01889895088970661]]], [[[0.03863437846302986]], [[-0.014358374290168285]], [[-0.03719449043273926]], [[0.029138904064893723]], [[-0.053538523614406586]], [[0.006902166176587343]], [[0.029267568141222]], [[-0.09341070055961609]], [[-0.09895286709070206]], [[0.07847537845373154]], [[-0.0757899209856987]], [[-0.05404270440340042]], [[0.01876026764512062]], [[0.17577536404132843]], [[0.14464572072029114]], [[0.008206169120967388]]], [[[-0.003080834401771426]], [[-0.03049994260072708]], [[0.0775085985660553]], [[-0.0028646844439208508]], [[0.02162293531000614]], [[0.004234660416841507]], [[0.012154079973697662]], [[0.013886900618672371]], [[0.009156673215329647]], [[-0.039026401937007904]], [[0.02918209880590439]], [[0.060413774102926254]], [[-0.05574549362063408]], 